tree
version=v4
num_class=1
num_tree_per_iteration=1
label_index=0
max_feature_idx=7
objective=binary sigmoid:1
feature_names=vol_ewma_60 vol_vol_ewma_60 vol_regime distance_15 rsi_60 time_sin time_cos Q
feature_infos=[-20.217038721136394:-5.9105993101758312] [0.00061017183467335253:1.82286570448339] [0.2539614037644376:1.4075809012198468] [-0.071992210759369971:0.057079173207792426] [2.8604522078528305:96.717482350205444] [-1:1] [-1:1] [-9.3255779753353156:8.7664246770726049]
tree_sizes=3572 3569 3614 3609 3577 3620 3578 3650 3579 3631 3588 3576 3586 3586 3615 3565 3588 3642 3574 3646 3583 3567 3578 3587 3639 3577 3577 3600 3579 3631 3577 3641 3592 3589 3592 3631 3591 3619 3572 3586 3584 3614 3582 3637 3581 3609 3579 3631 3618 3593 3590 3581 3595 3603 3642 3576 3615 3624 3589 3602 3621 3602 3600 3632 3589 3583 3576 3600 3624 3593 3634 3595 3563 3594 3628 3586 3632 3622 3668 3596 3575 3613 3629 3607 3624 3609 3601 3597 3659 3615 3606 3630 3585 3625 3593 3599 3585 3593 3615 3611 3612 3633 3632 3591 3599 3626 3587 3640 3629 3601 3625 3599 3585 3585 3619 3591 3598 3624 3618 3586 3592 3606 3622 3608 3584 3585 3638 3603 3618 3613 3606 3594 3590 3602 3610 3597 3615 3599 3605 3610 3646 3610 3625 3634 3591 3594 3637 3633 3595 3585 3605 3584 3622 3602 3620 3600 3627 3631 3632 3597 3605 3626 3648 3602 3640 3597 3598 3607 3639 3602 3613 3638 3580 3607 3599 3604 3620 3604 3605 3637 3620 3603 3603 3602 3636 3605 3617 3597 3613 3614 3598 3633 3604 3618 3601 3589 3606 3606 3610 3598 3649 3613 3578 3575 3592 3619 3565 3625 3597 3620 3586 3618 3605 3588 3639 3620 3637 3607 3620 3580 3615 3611 3607 3593 3634 3594 3593 3613 3624 3646 3578 3609 3591 3609 3644 3619 3603 3607 3622 3613 3608 3632 3615 3596 3600 3620 3610 3608 3595 3595 3628 3566 3596 3614 3612 3613 3632 3602 3594 3616 3612 3635 3598 3614 3648 3615 3579 3630 3589 3643 3586 3574 3604 3599 3623 3616 3528 3638 3633 3625 3587 3630 3583 3590 3604 3594 3606 3595 3619 3616 3624 3616 3597 3625 3575 3582 3618 3587 3606 3561 3568 3603 3622 3640 3584 3629 3549 3588 3605 3612 3573 3593 3589 3633 3567 3601 3618 3608 3601 3564 3580 3563 3552 3577 3566 3614 3645 3577 3596 3606 3562 3590 3620 3586 3607 3626 3557 3657 3570 3567 3538 3523 3556 3526 3587 3588 3589 3553 3587 3560 3540 3560 3606 3530 3610 3622 3568 3591 3612 3616 3572 3569 3607 3561 3568 3540 3582 3548 3606 3563 3558 3595 3580 3561 3594 3560 3625 3602 3649 3533 3571 3574 3609 3647 3538 3559 3591 3616 3582 3590 3642 3583 3597 3568 3605 3625 3592 3575 3566 3605 3554 3591 3590 3631 3568 3596 3579 3610 3560 3523 3562 3556 3619 3615 3557 3599 3604 3624 3637 3551 3598 3611 3548 3542 3588 3573 3608 3571 3597 3509 3638 3624 3581 3622 3596 3609 3537 3636 3569 3553 3593 3580 3567 3582 3568 3589 3554 3554 3565 3574 3574 3555 3595 3580 3585 3549 3573 3620 3579 3638 3629 3558 3556 3538 3595 3568 3548 3612 3566 3543 3563 3629 3521 3552 3600 3606 3583 3517 3596 3611 3576 3595 3575 3598 3553 3541 3533 3617 3590 3568 3567 3547 3582 3605 3616 3596 3626 3609 3550 3628 3587 3597 3562 3583

Tree=0
num_leaves=31
num_cat=0
split_feature=7 7 7 7 7 7 7 7 7 7 7 7 7 7 4 7 4 4 4 4 4 4 4 1 1 1 1 7 4 7
split_gain=846212 106535 104968 12453.6 12075.7 9659.67 9595.92 1674.21 1591.18 1466.48 1385.38 913.871 840.656 731.257 716.494 681.358 590.151 570.156 499.842 471.921 302.997 293.892 282.386 312.147 278.008 255.079 212.744 207.119 203.843 182.314
threshold=1.0000000180025095e-35 0.65816046613292445 -0.65526002638972292 0.29261168676258781 -0.27806205017182645 1.1882883430741817 -1.2462679122145965 0.12403208781687645 -0.44021274455393206 0.48206879117371632 -0.1330845908856079 -0.8986472648508057 1.8343509769697401 -1.8845366054590091 46.911938847781016 0.86986633093257215 48.148324918203706 43.070926798898121 52.214716378669166 53.518788257522594 59.03066418232833 39.668213330185772 58.424553379821013 0.0071486555355187451 0.0083014611279087127 0.009018010609129672 0.0096893776648246735 0.2021225217677767 41.136640850138726 0.3814779797822711
decision_type=2 2 2 2 2 2 2 2 2 2 2 2 2 2 2 2 2 2 2 2 2 2 2 2 2 2 2 2 2 2
left_child=2 3 6 7 8 15 13 16 22 17 18 -8 -7 -1 -9 28 -2 -5 -6 -12 24 -11 23 -4 -10 -23 29 -16 -3 -19
right_child=1 5 4 9 10 12 11 14 20 21 19 -13 -14 -15 27 -17 -18 26 -20 -21 -22 25 -24 -25 -26 -27 -28 -29 -30 -31
leaf_value=0.061938310861925278 0.0033160336853975646 -0.027504265895460723 0.032659831131938447 -0.011779045685250256 0.019369124053887327 -0.049012686606725489 0.049236378487223717 -0.0045033830941636783 0.024558934826727805 -0.018243670865777904 0.011256584517857977 0.041620379789673367 -0.054936794290880234 0.056293586549587091 -0.0097244627256791866 -0.041164868820347117 -0.0042954833886153683 -0.017261884321660148 0.012685894444895453 0.0044506775317101508 0.018140002235301857 -0.026834037057421843 0.027152319857583429 0.039329296669910571 0.031247236939587617 -0.034097542587881044 -0.025669432378162445 -0.014488131780407532 -0.035341516671245798 -0.021784556163409869
leaf_weight=74999.513072326779 15086.45234104991 3432.9891549944878 27590.912838757038 8209.474065810442 25469.169541463256 30204.904581010342 26025.667783454061 16221.448755532503 28912.158664867282 2993.7405426055193 27593.662830069661 31295.40113607049 76435.758535146713 28697.909341692924 15791.200114712119 25626.419044703245 23367.42618098855 16087.199179634452 16668.947341859341 13732.956616818905 5259.9833834171295 24783.671706989408 6007.7310212403536 8224.9740168452263 6950.9780414700508 5304.9832412600517 6040.4809177815914 17165.695772603154 24394.172937437892 16102.199132248759
leaf_count=299999 60346 13732 110364 32838 101877 120820 104103 64886 115649 11975 110375 125182 305744 114792 63165 102506 93470 64349 66676 54932 21040 99135 24031 32900 27804 21220 24162 68663 97577 64409
internal_value=0.00356535 -0.0305513 0.0376631 -0.0137995 0.0209545 -0.0480416 0.0549312 -0.00599889 0.029061 -0.0223956 0.012898 0.045079 -0.0532594 0.0603767 -0.00966558 -0.0376314 -0.00130937 -0.0189559 0.0167257 0.00899504 0.0248694 -0.0272232 0.0331817 0.0341924 0.025856 -0.0281159 -0.0204966 -0.0122061 -0.0343758 -0.019525
internal_weight=654678 327248 327430 167154 166411 160094 161018 87632.2 82946.7 79521.7 83464.7 57321.1 106641 103697 49178.3 53453.6 38453.9 46439.4 42138.1 41326.6 41123.1 33082.4 41823.6 35815.9 35863.1 30088.7 38229.9 32956.9 27827.2 32189.4
internal_count=2618721 1308997 1309724 668618 665648 640379 644076 350530 331788 318088 333860 229285 426564 414791 196714 213815 153816 185758 168553 165307 164493 132330 167295 143264 143453 120355 152920 131828 111309 128758
is_linear=0
shrinkage=1


Tree=1
num_leaves=31
num_cat=0
split_feature=7 7 7 7 7 7 7 7 7 7 7 7 7 7 7 4 4 4 4 4 4 4 4 4 3 4 7 7 7 7
split_gain=796983 100464 99010.4 11453.4 11132.9 9717.04 8994.35 1549.85 1513.05 1354.47 1322.71 875.429 788.374 725.651 674.239 573.548 538.774 524.327 498.33 454.556 345.418 332.738 217.809 194.995 175.096 170.687 156.903 153.714 150.241 144.615
threshold=1.0000000180025095e-35 0.64240401498276112 -0.65526002638972292 -0.28683871839687719 0.27350064633688859 1.1882883430741817 -1.2462679122145965 0.44642836039952427 -0.1330845908856079 0.12403208781687645 -0.45142147977912128 -0.8986472648508057 1.9001468993985184 0.82484215673080785 -1.8845366054590091 44.961087577821608 42.456302481522251 51.834336157176104 56.13593944435619 53.518788257522594 43.919187607170073 58.575057075703604 57.745911411404954 40.793689173837556 -0.0010806481193472628 51.524662159511536 0.34081246510559388 -0.22222706017632821 -0.37494454913978098 -0.5641413239265668
decision_type=2 2 2 2 2 2 2 2 2 2 2 2 2 2 2 2 2 2 2 2 2 2 2 2 2 2 2 2 2 2
left_child=2 4 6 10 9 13 14 16 18 17 22 -8 -7 23 -1 -11 -6 24 27 -10 -9 28 29 -3 -2 -17 -18 -5 -12 -4
right_child=1 5 3 8 7 12 11 20 19 15 21 -13 -14 -15 -16 25 26 -19 -20 -21 -22 -23 -24 -25 -26 -27 -28 -29 -30 -31
leaf_value=0.056682498976038699 0.0031655759330405093 -0.028625634706682987 0.032368283236847324 0.017186494784072279 -0.012868633974199493 -0.051266163860517938 0.044435583332761062 -0.023188298832790256 0.0073550537188548423 -0.0063761379427912613 0.024553697012604167 0.036984851925498385 -0.05686585387873562 -0.042821573072693971 0.051255902902238429 -0.011869293184863013 -0.019643420967713057 -0.008812827278951562 0.0070939317796714779 0.00068034225173580788 -0.030251361657517444 0.014520540863724375 0.023887204466909402 -0.036902342698047971 -0.0031545868778613318 -0.016228197785283609 -0.023625253331454481 0.01312712252419024 0.020612097375818615 0.02830002284241848
leaf_weight=74793.491486236453 5105.4850884228945 2914.4722505360842 13333.82660998404 14183.92925003171 6942.2841157466173 32827.642876267433 26043.462743222713 7861.2380886673927 27650.374836102128 10761.945475459099 15578.598455965519 31329.929263114929 73836.776338219643 30609.163314074278 28638.804456979036 14216.59321077168 15217.116814687848 16089.926154017448 9709.5676797628403 13748.431983619928 30436.148051097989 5684.207271412015 6390.2360560148954 22473.764267906547 17347.439743772149 18802.30307328701 21651.881844729185 20647.814371943474 19883.891035228968 19491.760312318802
leaf_count=299461 20422 11660 53351 56741 27770 131391 104237 31449 110605 43048 62326 125374 295570 122486 114646 56868 60873 64360 38840 54994 121767 22739 25566 89922 69390 75212 86617 82598 79549 77990
internal_value=-5.00572e-07 -0.0331135 0.033111 0.016881 -0.016577 -0.0498298 0.0498957 -0.0243932 0.00926758 -0.00878098 0.0250225 0.0403677 -0.055143 -0.0397083 0.0551805 -0.0123915 -0.0205386 -0.00467957 0.0131052 0.00513847 -0.0288022 0.0212638 0.0289656 -0.0359534 -0.00171739 -0.0143518 -0.0219824 0.0147806 0.0223443 0.0299535
internal_weight=654203 327094 327108 166303 164432 162662 160806 82108.7 85940.1 82323.7 80362.5 57373.4 106664 55997.4 103432 43780.8 43811.3 38542.9 44541.3 41398.8 38297.4 41146.7 39215.8 25388.2 22452.9 33018.9 36869 34831.7 35462.5 32825.6
internal_count=2617822 1308805 1309017 665299 657776 651029 643718 328476 343778 329300 321521 229611 426961 224068 414107 175128 175260 154172 178179 165599 153216 164614 156907 101582 89812 132080 147490 139339 141875 131341
is_linear=0
shrinkage=0.03


Tree=2
num_leaves=31
num_cat=0
split_feature=7 7 7 7 7 7 7 7 7 7 7 7 7 7 3 3 7 3 3 3 7 3 3 7 7 7 7 3 7 7
split_gain=751060 95041 93512.5 11641.5 11216.9 7952.75 7859.96 1508.89 1477.14 1429.22 1326.74 854.597 846.338 540.375 477.105 458.089 441.758 381.659 376.812 331.161 218.725 187.496 174.017 169.953 159.581 159.308 130.894 130.774 128.419 127.519
threshold=1.0000000180025095e-35 0.67476835966555948 -0.67164687160721603 0.29261168676258781 -0.28683871839687719 1.3232081804028304 -1.2935700618252228 0.13282748263782651 0.48206879117371632 -0.45142147977912128 -0.1330845908856079 0.94614981875712023 -0.8986472648508057 -1.9514044294165767 -0.00032769526573428633 -0.00039628292795078986 1.9001468993985184 -0.00053199548519197455 0.00081618438921294471 0.00063780667492352873 -0.5641413239265668 -0.00065617781514078861 0.00040792771306124491 -0.22222706017632821 0.3814779797822711 0.2282796112044925 0.74470806011211577 -0.0012050395799958916 -0.074841010020715484 0.065592071691857337
decision_type=2 2 2 2 2 2 2 2 2 2 2 2 2 2 2 2 2 2 2 2 2 2 2 2 2 2 2 2 2 2
left_child=2 3 6 7 9 11 13 15 17 20 19 26 -8 -1 27 -2 -7 -5 28 23 -4 -10 -11 -6 -19 -16 -3 -9 -12 -17
right_child=1 5 4 8 10 16 12 14 21 22 18 -13 -14 -15 25 29 -18 24 -20 -21 -22 -23 -24 -25 -26 -27 -28 -29 -30 -31
leaf_value=0.055214911978018345 -1.1406210172342406e-05 -0.034115492088120578 0.030878710880237359 -0.016566936112938305 0.016645378454999624 -0.050709022508567209 0.043558851841462215 -0.0047727281886748556 -0.025207054520615491 0.02186565533608963 0.0087048445718170362 -0.044288905119693175 0.036251195077448867 0.050320663080747043 -0.013113770801300547 -0.0048757907093614633 -0.055331884945283419 -0.020719001562325097 -0.0007101770825594611 0.0079866299604146821 0.026501664184131427 -0.030457740093034411 0.017639184065681494 0.012331656406996284 -0.024812924654231669 -0.017528079845136237 -0.038242046169493685 -0.010498522320613702 0.0049567135590279999 -0.0088747091159433536
leaf_weight=72151.644780501723 12520.839048087597 10140.643553465605 18473.506066560745 12020.420535370708 13899.446980148554 25145.452824681997 28530.518808439374 5732.1305795460939 7904.1237756460905 28434.798877745867 14545.263301327825 25609.091499269009 28641.484885826707 28487.466160044074 18978.135674074292 14271.612552449107 73575.091618850827 17083.60825933516 7870.5412991046906 10455.014512419701 23364.78220230341 27736.392827197909 12724.380066454411 20177.36290307343 17317.042227014899 12045.690299540758 22578.510820671916 9617.7959062755108 18952.964194700122 14446.657607540488
leaf_count=289623 50084 40613 73976 48098 55615 100838 114380 22930 31639 113806 58185 102640 114743 114286 75924 57088 295221 68361 31483 41827 93546 111043 50922 80728 69307 48193 90447 38475 75817 57789
internal_value=1.52696e-05 -0.0321471 0.032179 -0.0165803 0.0166646 -0.0489652 0.0487832 -0.00897508 -0.0246998 0.0245298 0.00906504 -0.0401808 0.0398986 0.05383 -0.0126877 -0.00479998 -0.0541549 -0.0211719 0.0051966 0.0126585 0.028435 -0.029294 0.0205595 0.0140916 -0.0227805 -0.0148282 -0.0369642 -0.00836079 0.0065844 -0.00688768
internal_weight=653432 326723 326709 169674 168898 157049 157811 87612.9 82061.6 82997.5 85900.6 58328.2 57172 100639 46373.8 41239.1 98720.5 46421.1 41368.8 44531.8 41838.3 35640.5 41159.2 34076.8 34400.7 31023.8 32719.2 15349.9 33498.2 28718.3
internal_count=2617627 1308690 1308937 678931 675905 629759 633032 350483 328448 332250 343655 233700 229123 403909 185522 164961 396059 185766 165485 178170 167522 142682 164728 136343 137668 124117 131060 61405 134002 114877
is_linear=0
shrinkage=0.03


Tree=3
num_leaves=31
num_cat=0
split_feature=7 7 7 7 7 7 7 7 7 7 7 7 7 7 7 3 3 3 3 3 1 1 1 1 1 7 1 7 7 1
split_gain=707101 89740.5 88949.2 10625.5 10325.8 8249.52 7524.92 1698.75 1456.43 1172.45 1040.17 806.657 733.891 570.253 525.673 414.342 391.199 384.726 348.366 309.43 255.532 231.771 231.405 209.03 205.724 163.887 157.248 144.192 140.968 132.847
threshold=1.0000000180025095e-35 0.65816046613292445 -0.67164687160721603 -0.31557047303010349 0.27350064633688859 1.1882883430741817 -1.2935700618252228 -0.15088571190389519 0.44642836039952427 0.13282748263782651 -0.48626683071710564 -0.92426681458600768 1.9001468993985184 0.86986633093257215 -1.8845366054590091 0.0005577553748424281 -0.00049471473150972502 -0.00067330687718030163 -0.00065617781514078861 0.00063780667492352873 0.0096893776648246735 0.011404175210411366 0.0062803302525546818 0.0091797197243161082 0.0096893776648246735 0.56977647444466173 0.010255635978796411 -0.083524315143526429 -0.37494454913978098 0.0039607593916218932
decision_type=2 2 2 2 2 2 2 2 2 2 2 2 2 2 2 2 2 2 2 2 2 2 2 2 2 2 2 2 2 2
left_child=2 4 6 10 9 13 14 19 18 16 23 -8 -7 -3 -1 27 -2 -11 -6 22 28 25 -5 -4 -20 -10 -13 -9 -12 -19
right_child=1 5 3 7 8 12 11 15 21 17 20 26 -14 -15 -16 -17 -18 29 24 -21 -22 -23 -24 -25 -26 -27 -28 -29 -30 -31
leaf_value=0.053691828726429497 0.00010456208211665962 -0.034718270739373842 0.027233337601323893 0.013224049056299907 -0.014413538371540333 -0.048422294464108381 0.042668520136528519 0.0091647539506873564 -0.024733524419602519 -0.0063660133289222846 0.021681977175896004 0.034519197834524097 -0.053843183784666286 -0.040942978912812407 0.048719892315657494 0.00053714004575826542 -0.0064873043290899282 -0.011602390778607204 -0.019780185431193691 0.0089901206281026349 0.026340850827542849 -0.032681775540044783 0.01855387391531298 0.033207136856445309 -0.025975266861358946 -0.028994907358720075 0.040207458720561438 0.0052656898924187253 0.017661751921633193 -0.015470917084301794
leaf_weight=74397.091155737638 11086.360748380423 27727.320007413626 27625.840841427445 25737.90548299253 9768.9126586914062 32579.908391833305 25907.205561101437 15303.134165659547 21698.547194555402 8929.2825080901384 21050.048006758094 25775.648734331131 73447.138423025608 25493.589182719588 25967.615875095129 12083.953907474875 30104.140506833792 17163.788140267134 28139.550230517983 10983.325514659286 7403.3511907160282 6113.1127005368471 10265.428808063269 6548.3191300332546 5837.9772496521473 13078.404050841928 5323.3416804671288 19317.912666127086 12580.799777522683 14986.47724583745
leaf_count=299838 44346 111231 110739 103018 39099 131054 104128 61227 86938 35722 84319 103455 295845 102383 104519 48339 120426 68681 112664 43950 29655 24498 41089 26253 23377 52411 21366 77281 50376 59968
internal_value=7.6502e-06 -0.0312296 0.0312338 0.0161137 -0.0158584 -0.0473399 0.0474614 0.00937194 -0.0232152 -0.00828985 0.0245121 0.0387553 -0.0521779 -0.0377007 0.0524059 0.00532003 -0.00471315 -0.011876 -0.0194094 0.0133994 0.021291 -0.0272862 0.0147442 0.028379 -0.0208453 -0.0263369 0.0354941 0.00698936 0.0201786 -0.0134061
internal_weight=652425 326155 326271 168900 166907 159248 157371 93691.7 84636.5 82270 75208.4 57006.2 106027 53220.9 100365 46705 41190.5 41079.5 43746.4 46986.7 41034.2 40890.1 36003.3 34174.2 33977.5 34777 31099 34621 33630.8 32150.3
internal_count=2618195 1308643 1309552 676246 668130 640513 633306 374904 338987 329143 301342 228949 426899 213614 404357 186847 164772 164371 175140 188057 164350 163847 144107 136992 136041 139349 124821 138508 134695 128649
is_linear=0
shrinkage=0.03


Tree=4
num_leaves=31
num_cat=0
split_feature=7 7 7 7 7 7 7 7 7 7 7 7 7 4 7 7 4 4 4 4 4 1 4 1 4 1 7 4 1 7
split_gain=666481 86278.9 83651.9 10384 9461.59 7885.18 7252.37 1382.17 1362.98 1169.42 1135.48 769.672 708.359 553.757 545.16 505.034 504.017 460.012 446.543 410.899 322.772 295.409 257.402 236.515 195.361 241.593 183.681 181.232 180.323 170.926
threshold=0.00795334229536011 -0.67164687160721603 0.65816046613292445 -0.28683871839687719 0.29261168676258781 1.1882883430741817 -1.2935700618252228 -0.11693464925953749 -0.48626683071710564 0.48206879117371632 0.15824529342345342 -0.8986472648508057 1.7132927676066043 47.496746039158005 0.86986633093257215 -1.9514044294165767 43.807740554288024 54.096995065158744 45.241320938888727 51.90819358624271 58.879819984725152 0.010059447546979627 39.668213330185772 0.0098726130506440971 61.575639012543611 0.0071486555355187451 -0.19441419976327187 40.454833464677499 0.0054775854106887739 -0.37494454913978098
decision_type=2 2 2 2 2 2 2 2 2 2 2 2 2 2 2 2 2 2 2 2 2 2 2 2 2 2 2 2 2 2
left_child=1 6 4 8 10 14 15 17 24 16 13 -8 -7 -2 27 -1 -6 26 -12 -9 21 29 -11 -24 25 -3 -5 -4 -18 -10
right_child=2 3 5 7 9 12 11 19 20 22 18 -13 -14 -15 -16 -17 28 -19 -20 -21 -22 -23 23 -25 -26 -27 -28 -29 -30 -31
leaf_value=0.052459703018767283 -0.001094781980635427 0.026848209335177044 -0.026747570163810661 0.015578110600481426 -0.013770475218346468 -0.046456717710518299 0.041187241055125931 0.0066121052341081878 0.021673118177203767 -0.018968866329971471 -0.0069390462401344938 0.034202654129343625 -0.052238220368074018 -0.0079240550239955496 -0.039871759166092445 0.047708872082973128 -0.020137590423306404 0.0072220014897603612 -0.014329969454394981 0.00035147450659586688 0.013534177969389428 0.026679415675198929 -0.027050970988500862 -0.034387065970855384 0.01975938097195816 0.033068481354224744 0.01118212195090033 -0.034619582557725598 -0.02466980993303599 0.017519541981722495
leaf_weight=71310.349985331297 16689.576590880752 24092.439047858119 2967.3397716283798 18172.02813257277 9414.0728330016136 25123.198969066143 28362.132600694895 22909.895665436983 18894.281713888049 2994.1992661803961 9900.3696740269661 28550.063782602549 80536.978923663497 29706.829508125782 25375.430455178022 28287.781794548035 25450.438074409962 15086.255111262202 28673.496757075191 16040.960329681635 6385.2240171134472 6467.9812027961016 25183.045081749558 4711.9628624171019 2618.2913164943457 7363.3764352351427 16195.404139667749 24754.499191343784 11504.174027785659 16964.582063362002
leaf_count=288949 66763 96715 11919 72763 37699 101476 114376 91660 75760 12005 39613 114847 326035 118855 102215 114380 101988 60373 114783 64169 25579 25941 101056 18922 10506 29577 64826 99531 46114 67974
internal_value=-1.30138e-05 0.0301296 -0.0305957 0.0154109 -0.0155845 -0.046124 0.0462287 0.00826079 0.0230461 -0.0230402 -0.00862985 0.0376841 -0.050864 -0.00546753 -0.0366909 0.0511109 -0.0199702 0.0115898 -0.0124332 0.00403389 0.0198257 0.0207744 -0.0273678 -0.0282084 0.0276492 0.0283053 0.0135069 -0.033778 -0.0215491 0.0197086
internal_weight=650687 327701 322986 171191 164228 158757 156510 88404.5 82786.2 79257.9 84970.3 56912.2 105660 46396.4 53097.3 99598.1 46368.7 49453.7 38573.9 38950.9 48712.1 42326.8 32889.2 29895 34074.1 31455.8 34367.4 27721.8 36954.6 35858.9
internal_count=2617369 1318395 1298974 685843 657798 641176 632552 353791 332052 317784 340014 229223 427511 185618 213665 403329 185801 197962 154396 155829 195254 169675 131983 119978 136798 126292 137589 111450 148102 143734
is_linear=0
shrinkage=0.03


Tree=5
num_leaves=31
num_cat=0
split_feature=4 4 4 0 0 2 5 4 4 3 3 3 4 2 0 3 5 3 0 4 0 4 3 0 2 3 3 6 5 6
split_gain=961.109 336.157 166.705 124.37 70.6975 76.1109 49.7821 48.7618 47.3996 47.3088 44.7346 44.5256 36.5605 34.446 36.5451 31.6579 30.6179 32.5648 51.1585 30.1909 25.3622 23.7156 22.4896 21.486 20.5808 20.521 20.2174 18.7659 18.5623 22.0947
threshold=51.524662159511536 40.085469587692693 58.575057075703604 -17.452475619826767 -16.7472984724653 1.0362108952552189 -0.10452846326765322 46.578384115231778 62.661863639115332 0.00039759090387408682 -7.0971676045230331e-05 8.2724630542289324e-05 37.307855091810431 1.1376932712124479 -16.569356467618899 -0.0015247144057117716 -0.84455963375842924 -8.5560424124276444e-05 -17.024172971264402 64.049365676042854 -17.817024073625621 74.648696479303581 -0.0011715145673779849 -16.536885180421411 0.94254456763282846 -0.00028945260387150813 0.00030207907040991614 -0.99115537938034626 -0.45787391511695713 0.28610580641900601
decision_type=2 2 2 2 2 2 2 2 2 2 2 2 2 2 2 2 2 2 2 2 2 2 2 2 2 2 2 2 2 2
left_child=1 3 6 10 11 8 -2 9 -6 16 -1 -4 13 14 -5 -8 -3 18 24 -13 -21 26 -15 -19 25 -18 -22 -14 29 -9
right_child=2 7 4 12 5 -7 15 28 -10 -11 -12 19 27 22 -16 -17 17 23 -20 20 21 -23 -24 -25 -26 -27 -28 -29 -30 -31
leaf_value=-0.0051045936795945223 -0.00029662276951111262 0.0021303931333898568 -0.0049070689482319596 0.0013875404749252598 -0.0027309418379853705 -0.0015166219169884859 0.004161624031524337 0.00024436238189138714 -0.0047062291013953888 -0.0011921544812686289 0.0052508332275234011 0.0028279240701952085 0.0061784087626893568 0.0029881361612442902 0.0049408209523470357 -0.001324053416836751 -0.0088564321708991013 0.0040373753197693709 0.00083596390737240356 0.0041922910139599303 -0.0063440523026519081 -0.010909808259059078 -0.0011538322772308345 0.0015503822521975043 0.0011692554315275486 -0.0026827516679828246 0.00013127124981917842 0.0022941212435285282 1.6131577047078725e-05 0.0014623035304581144
leaf_weight=2213.5944776535034 90603.800397902727 23591.695364549756 1305.523188278079 2961.4887465387583 33200.299863398075 32704.807129219174 955.14247226715088 37212.318658426404 16307.237139835954 8239.7573104798794 451.2449918538332 4084.8531572669744 1168.3680368512869 7775.5618752539158 21699.681588053703 97600.146380290389 665.9985481351614 3916.0797253847122 86346.508701115847 670.83761370182037 566.93812754750252 260.51815235614777 1390.2582759559155 15505.006068691611 801.75558462738991 1777.3506810069084 1839.3327250778675 26422.908075064421 105957.98465457559 20953.154890850186
leaf_count=8928 365529 95169 5266 11945 133922 131938 3853 150133 65778 33242 1820 16478 4712 31362 87519 393749 2686 15799 348330 2706 2287 1051 5608 62553 3235 7170 7420 106574 427477 84535
internal_value=1.33301e-05 0.00101898 -0.00131169 0.00299413 -0.00236722 -0.00263976 -0.000804215 0.000603933 -0.00338166 0.00101343 -0.00334977 0.000199938 0.00326944 0.00393053 0.00451419 -0.00127085 0.00115049 0.000938404 0.000696976 0.00109874 -0.00101779 -0.00232948 0.00235983 0.00205204 -0.00300036 -0.00436848 -0.00139637 0.00245882 0.000252517 0.000683123
internal_weight=649150 369051 280099 64083.1 90940.3 82212.3 189159 304968 49507.5 140844 2664.84 8728 61418.3 33827 24661.2 98555.3 132604 109013 89591.6 7422.48 3337.63 2666.79 9165.82 19421.1 3245.1 2443.35 2406.27 27591.3 164123 58165.5
internal_count=2618774 1488797 1129977 258468 366846 331638 763131 1230329 199700 568184 10748 35208 247720 136434 99464 397602 534942 439773 361421 29942 13464 10758 36970 78352 13091 9856 9707 111286 662145 234668
is_linear=0
shrinkage=0.03


Tree=6
num_leaves=31
num_cat=0
split_feature=7 7 7 7 7 7 7 7 7 7 7 7 7 4 4 7 4 4 4 4 7 1 4 1 1 4 7 4 1 4
split_gain=629818 81615.2 80171.4 10937.2 9970.09 6459.35 6057.86 1591.88 1451.84 1109.46 1057.94 659.057 646.479 551.171 528.254 476.134 406.915 392.475 358.001 342.178 338.105 278.712 274.94 222.598 221.215 224.759 191.966 190.231 183.812 159.406
threshold=1.0000000180025095e-35 0.70887662395279438 -0.68930681525732374 0.32184368042628275 -0.27806205017182645 -1.2935700618252228 1.3726185237762465 0.15824529342345342 -0.48626683071710564 0.50579380671238294 -0.1330845908856079 0.94614981875712023 -0.95260495443903936 47.496746039158005 42.456302481522251 -1.8845366054590091 43.919187607170073 53.094745328088599 52.693935180133415 58.424553379821013 2.1168152216840799 0.0087134629429489931 40.793689173837556 0.0098726130506440971 0.013997404354239197 60.444320724237215 -0.37494454913978098 51.524662159511536 0.005136207857091667 41.136640850138726
decision_type=2 2 2 2 2 2 2 2 2 2 2 2 2 2 2 2 2 2 2 2 2 2 2 2 2 2 2 2 2 2
left_child=2 3 5 7 8 15 11 13 24 16 18 29 -7 -2 -9 -1 -5 -12 -6 21 -8 26 -11 -24 25 -4 -10 -16 -18 -3
right_child=1 6 4 9 10 12 20 14 19 22 17 -13 -14 -15 27 -17 28 -19 -20 -21 -22 -23 23 -25 -26 -27 -28 -29 -30 -31
leaf_value=0.051147373471190652 -0.00070351185697920871 -0.028386041987285622 0.026983148147325216 -0.014888454387009371 0.013539706145782725 0.040804007275940017 -0.047692968711771734 -0.0052868836938492402 0.021329510589268168 -0.020357300177914161 0.0068051120665432755 -0.041081574314139287 0.034167055205711776 -0.0073353603757581 -0.011938619087493539 0.046387798472198601 -0.020517491183359785 0.00068543537674098593 0.0078098027936107433 0.013260893286644641 -0.051554332346576984 0.02534304154925238 -0.027603092844246595 -0.034568072021471857 0.033499856716410134 0.017860230227822425 0.016932204903171329 -0.016124782440173336 -0.025159895597869256 -0.035374884004063301
leaf_weight=73429.859118804336 17640.26313136518 3378.2695293426514 29830.088638886809 8935.9150904417038 26394.741636484861 23207.990983188152 30147.731939047575 7296.1751828789711 17981.340224415064 4031.787314042449 26769.934303238988 27774.036246150732 30822.192879736423 31275.408006191254 19120.882106810808 25679.060275122523 22961.139731943607 14562.879204541445 15630.751140683889 7319.9746128767729 64826.499711766839 7986.3242876082659 26608.083786085248 4911.2280073612928 4288.8505057692528 2654.8742273002863 17832.95614695549 20022.862029865384 11580.49150210619 23960.661104932427
leaf_count=299501 70566 13611 120011 35811 105730 93988 122564 29199 72185 16190 107120 112460 124410 125147 76571 104386 92132 58255 62567 29337 264175 32076 107025 19777 17268 10667 71506 80220 46495 96684
internal_value=3.35326e-05 -0.0295192 0.0295936 -0.0155607 0.0154901 0.045365 -0.0457373 -0.00872077 0.0225394 -0.0238134 0.00805709 -0.0378236 0.0370186 -0.00494381 -0.0126989 0.0499147 -0.020598 0.00464902 0.0114088 0.0192683 -0.0503291 0.020272 -0.0277451 -0.0286894 0.0270859 0.0262381 0.0191405 -0.0140803 -0.0220746 -0.0345123
internal_weight=648863 324471 324392 174384 171253 153139 150087 95355.6 87894.4 79028.6 83358.3 55113 54030.2 48915.7 46439.9 99108.9 43477.5 41332.8 42025.5 51120.6 94974.2 43800.6 35551.1 31519.3 36773.8 32485 35814.3 39143.7 34541.6 27338.9
internal_count=2617634 1308627 1309007 699133 686722 622285 609494 381703 353050 317430 333672 222755 218398 195713 185990 403887 174438 165375 168297 205104 386739 175767 142992 126802 147946 130678 143691 156791 138627 110295
is_linear=0
shrinkage=0.03


Tree=7
num_leaves=31
num_cat=0
split_feature=4 4 4 0 0 4 3 3 0 1 5 3 1 5 6 1 0 0 3 6 6 6 4 3 5 3 3 1 3 1
split_gain=906.065 301.877 143.651 99.782 79.6451 53.4438 50.6863 45.4541 42.7019 39.6385 39.494 36.1575 35.2778 33.9953 30.2895 29.7042 25.8502 25.1746 42.7886 24.9597 23.7569 23.6483 21.1644 21.8421 19.8295 19.7712 18.9789 18.9387 19.887 18.9368
threshold=51.524662159511536 40.793689173837556 58.575057075703604 -16.70804675426697 -16.7472984724653 37.307855091810431 -0.0001238933591662121 8.2724630542289324e-05 -17.557326969908527 0.031469614195951574 -0.10452846326765322 0.0011263266959846256 0.012874954729757167 -0.23344536385590589 0.61048935452158493 0.005726040193198419 -17.557326969908527 -16.357933638574099 -9.2952932341984812e-05 -0.2672383760782569 0.34816221916848017 0.87142585150634833 64.438610286172803 0.00031098455924094244 -0.2228242446826833 0.00027560258405405383 -0.00086969930657795588 0.0016879508118085079 0.00059589706592050806 0.018147707165124056
decision_type=2 2 2 2 2 2 2 2 2 2 2 2 2 2 2 2 2 2 2 2 2 2 2 2 2 2 2 2 2 2
left_child=1 3 10 6 7 9 8 -4 -1 -5 20 13 21 19 17 -7 25 18 -15 -3 -2 24 -18 -24 -6 -9 -11 28 -22 -12
right_child=2 11 4 5 12 15 -8 16 -10 26 29 -13 -14 14 -16 -17 22 -19 -20 -21 27 -23 23 -25 -26 -27 -28 -29 -30 -31
leaf_value=-0.0058674173018099258 -0.00078043495833904971 0.00043726774611275651 -0.0047519964144832564 0.0044185947052592014 -0.0025875756151134007 0.0029859692607183946 0.0045743287177138431 0.0016224820951448327 -0.00024735944307306896 0.0023155199635358443 -0.0013577109798291903 -0.0011098511812268265 -0.0014983342233846168 -0.0019797481838746346 -0.00029553912355125358 0.0012196241292197205 0.0017287107644036995 0.00077713491241540209 0.00099330340373402111 0.0013242918495685926 0.00046460065848429066 -0.0016643416945561415 -0.008208004494750714 -0.00061302658841406424 -0.0037712648872279611 0.0073918127554903771 -0.0027662890761408591 -4.768983673287517e-05 0.0045942446427365618 0.00058638073633733806
leaf_weight=1688.2132535725832 55370.860559031367 47525.185474559665 1304.6309622824192 25948.868839785457 24048.858443468809 19954.962863221765 1367.9272394329309 1270.9165601283312 4350.8533345460892 4566.9334701299667 93505.205574139953 11805.770723864436 20046.714829146862 8546.5665866136551 51843.243737831712 15020.04509100318 3171.9215113818645 93766.244679749012 8885.2239729762077 71512.194888368249 2733.0882318764925 10708.899695843458 425.83132964372635 1691.4862475097179 27111.258682325482 922.66997620463371 772.53876501321793 30351.059169024229 1703.0206140577793 4737.3277544230223
leaf_count=6832 224152 192392 5280 105007 97334 80748 5535 5144 17608 18482 378519 47793 81160 34596 209862 60787 12838 379575 35968 289489 11065 43345 1724 6847 109722 3735 3127 122871 6894 19188
internal_value=-3.14432e-05 0.000947111 -0.00132011 0.00266428 -0.002301 0.00303341 -0.000637942 0.000413155 -0.00181915 0.00393422 -0.000847862 0.000516646 -0.00259216 0.000584723 0.000303311 0.00222747 0.00131421 0.000582509 -0.000464373 0.000970158 -0.000394444 -0.00294655 0.000178459 -0.00214367 -0.00321491 0.00405145 0.00157988 0.000219944 0.00205065 -0.00126396
internal_weight=646659 367555 279104 73670.3 90703.2 66263.3 7406.99 8787.46 6039.07 31288.3 188401 293884 81915.7 282079 163041 34975 7482.83 111198 17431.8 119037 90158 61869 5289.24 2117.32 51160.1 2193.59 5339.47 34787.2 4436.11 98242.5
internal_count=2617619 1487801 1129818 298126 367129 268151 29975 35568 24440 126616 762689 1189675 331561 1141882 660001 141535 30288 450139 70564 481881 364982 250401 21409 8571 207056 8879 21609 140830 17959 397707
is_linear=0
shrinkage=0.03


Tree=8
num_leaves=31
num_cat=0
split_feature=7 7 7 7 7 7 7 7 7 7 7 7 7 7 4 4 4 7 4 4 4 4 4 4 7 7 7 7 7 7
split_gain=594967 78320.2 75847.1 9212.22 8511.81 7807.9 6233.77 1443.02 1113.21 1007.4 966.026 789.363 616.989 585.815 471.481 460.594 417.887 396.535 329.828 287.052 260.072 236.571 227.634 163.496 158.26 141.355 137.778 134.511 130.478 119.396
threshold=0.00795334229536011 -0.63914065391416341 0.69194079715480272 0.32184368042628275 -0.26832602282634149 -1.1567692628050705 1.3232081804028304 0.16697805801999108 -0.42862446398285442 -0.1001010121042208 0.48206879117371632 -1.8845366054590091 0.97651739577865782 -0.85009365538133352 45.337344480419908 46.832171128644646 51.298710263050971 2.0412660505752465 43.919187607170073 53.844582220166636 42.456302481522251 56.13593944435619 58.879819984725152 41.136640850138726 0.082627804723420656 0.24654569933420589 0.56977647444466173 -0.18617036349547303 -0.5641413239265668 0.074098056812691979
decision_type=2 2 2 2 2 2 2 2 2 2 2 2 2 2 2 2 2 2 2 2 2 2 2 2 2 2 2 2 2 2
left_child=1 5 3 7 8 11 12 15 22 16 18 -1 23 -7 -9 29 27 -8 -5 -11 -12 -10 28 -4 -17 -16 -22 -6 -3 -2
right_child=2 4 6 10 9 13 17 14 21 19 20 -13 -14 -15 25 24 -18 -19 -20 -21 26 -23 -24 -25 -26 -27 -28 -29 -30 -31
leaf_value=0.049991190941198194 0.0018694832082054576 0.027890813977589895 -0.028021947650327693 -0.014105371362760671 0.014713064087105314 0.037541719792534692 -0.046119209588872563 -0.007566391246053069 0.018610250326944491 0.0051904622847696175 -0.020578327498128841 0.044408700437421733 -0.040165388957318526 0.031264044507268884 -0.012787525799707019 -0.0051655040532023857 0.0069495355001056467 -0.050296797055647068 -0.02098321300791308 -0.00077030596218417597 -0.025261473751675891 0.013092116526093807 0.018673502517512385 -0.034501700155709136 -0.0093281513105128756 -0.016758946034384482 -0.029222607958569548 0.010506452243406142 0.024005073388293566 -0.0033657767017392266
leaf_weight=72874.940542966127 6779.3413914442062 11455.972525373101 4033.1031258553267 7917.3117063045502 13043.237620353699 25277.767348602414 29742.248094633222 11411.24632063508 32065.057239353657 23033.111302882433 6005.3039057254791 33330.413593262434 22560.573068723083 28551.940251931548 17160.605316132307 15659.78257535398 21920.019243791699 66870.870445609093 30428.156682342291 10624.692449063063 14787.469443023205 8957.5099151730537 5490.1110148727894 28350.668428570032 17313.823699131608 15266.724828675389 17194.248106598854 14424.540941044688 24628.579994320869 9295.1219627261162
leaf_count=299548 27118 46205 16292 31739 52289 102724 121663 45681 128774 92173 24152 136204 91784 115502 68759 62662 87754 274594 122259 42501 59576 35923 22070 114831 69309 61226 69357 57776 99179 37186
internal_value=-8.58406e-06 0.0285545 -0.0290081 -0.0152024 0.0140938 0.0435217 -0.0444224 -0.00885693 0.0209128 0.0073115 -0.0229239 0.0482397 -0.0363528 0.0342126 -0.0128121 -0.00532169 0.0100392 -0.0490112 -0.0195635 0.00330887 -0.0263154 0.0174057 0.0243729 -0.0336956 -0.00735145 -0.0146577 -0.0273919 0.0125044 0.0252394 -0.00115785
internal_weight=646454 325678 320777 169219 165643 160035 151557 92886.6 82597.2 83045.6 76332.5 106205 54944.3 53829.7 43838.6 49048.1 49387.8 96613.1 38345.5 33657.8 37987 41022.6 41574.7 32383.8 32973.6 32427.3 31981.7 27467.8 36084.6 16074.5
internal_count=2616810 1318622 1298188 679024 664644 653978 619164 371941 332151 332493 307083 435752 222907 218226 175666 196275 197819 396257 153998 134674 153085 164697 167454 131123 131971 129985 128933 110065 145384 64304
is_linear=0
shrinkage=0.03


Tree=9
num_leaves=31
num_cat=0
split_feature=4 4 4 0 0 2 3 3 3 4 1 4 4 4 2 3 0 1 3 4 3 3 0 6 6 3 0 6 6 1
split_gain=798.263 275.252 149.887 110.871 60.1337 58.7473 44.6101 39.4403 37.71 36.5169 43.0432 33.6371 26.4737 25.5067 23.9871 45.7253 76.3207 26.7466 26.2663 22.0954 20.492 19.7386 21.1901 19.671 18.8814 18.1126 18.9043 17.4429 21.8878 17.3807
threshold=51.524662159511536 40.085469587692693 58.575057075703604 -17.20849103095745 -16.875317834289934 1.0500530101005994 8.2724630542289324e-05 0.00062394115386005115 -2.8219425234416322e-05 37.307855091810431 0.015312199795753075 46.578384115231778 62.661863639115332 68.981792266807005 0.8738665324172481 8.9996763066306238e-05 -16.413788552981092 0.001706287239183833 -0.00037576562557189828 56.13593944435619 0.00036836824274130773 0.00032983213493996492 -17.676956068765854 0.54646613226747065 0.96304284483113511 -0.0013861582502924445 -13.145772312666049 0.53545706213121791 0.078459095727844666 0.0059873436864457197
decision_type=2 2 2 2 2 2 2 2 2 2 2 2 2 2 2 2 2 2 2 2 2 2 2 2 2 2 2 2 2 2
left_child=1 3 14 8 6 12 -4 11 -1 10 24 27 -6 21 15 -2 17 -17 -16 20 -18 23 -23 -8 -5 -12 -27 28 -3 -11
right_child=2 7 4 9 5 -7 13 -9 -10 29 25 -13 -14 -15 18 16 19 -19 -20 -21 -22 22 -24 -25 -26 26 -28 -29 -30 -31
leaf_value=-0.0031908790299276938 -0.0014964089022212104 0.00098084833074945895 -0.0049511994295172203 0.0047071150509899913 -0.0025559021016228179 -0.0013583860022762686 -0.0010085751554412825 -0.00054873090809570398 0.0093551430141680554 0.0028642902376183306 0.0029368413120707381 0.0003353872097591606 -0.0039671958907097557 -0.0026554578191041746 0.00025040268688211091 -0.00030417173981189984 -0.00084260633301617115 0.0053001907668485254 -0.0010551497863851877 -0.001404647338704894 0.0012468721714321085 0.011695487268001927 0.003211736191890894 0.004367439598725131 0.0016567738995699863 0.0010405040789980204 -0.0062978446905347677 0.00049573509156850991 0.0020885971623402881 0.0013229657042770524
leaf_weight=3371.2043572962284 14723.113897636533 71342.526095271111 1196.5636925399303 20565.515654981136 35453.086240589619 29148.961733058095 2018.6928098648787 26710.81848987937 229.3886956423521 15544.987179100513 7232.7903100401163 141404.45096132159 18063.636694744229 1160.2724973261356 15573.710038229823 973.07778316736221 6634.2869947105646 3605.6693053245544 126695.73644064367 7979.2872317433357 11624.925160124898 305.51841558516026 1968.3459942042828 878.24954062700272 2005.8690602779388 2844.4486785233021 354.40332327783108 42567.211631849408 20715.256873115897 11427.641703665257
leaf_count=13694 59836 289893 4861 83530 144042 118449 8202 108555 932 63134 29382 574685 73387 4716 63295 3953 26957 14653 514896 32422 47239 1241 7995 3569 8146 11558 1440 172961 84178 46422
internal_value=8.96636e-06 0.000928865 -0.00120316 0.00272336 -0.00220834 -0.0024421 0.000358613 0.000552008 -0.00238921 0.00303032 0.00369957 0.000658526 -0.00303232 0.00136278 -0.000720417 -0.000121163 0.000535896 0.00410934 -0.000912235 -8.78211e-05 0.000487678 0.00226477 0.00435626 0.000622185 0.00443612 0.0021056 0.000225769 0.000997932 0.00123014 0.00221134
internal_weight=644320 366317 278003 63576.2 90193.3 82665.7 7527.64 302740 3600.59 59975.7 33003 276029 53516.7 6331.08 187810 45540.4 30817.2 4578.75 142269 26238.5 18259.2 5170.81 2273.86 2896.94 22571.4 10431.6 3198.85 134625 92057.8 26972.6
internal_count=2618223 1488510 1129713 258238 366462 335878 30584 1230272 14626 243612 134056 1121717 217429 25723 763251 185060 125224 18606 578191 106618 74196 21007 9236 11771 91676 42380 12998 547032 374071 109556
is_linear=0
shrinkage=0.03


Tree=10
num_leaves=31
num_cat=0
split_feature=7 7 7 7 7 7 7 7 7 7 7 7 7 4 4 4 7 7 4 4 4 1 1 4 1 7 1 4 4 3
split_gain=560622 74367.3 73136.2 9191.97 8941.39 6162.32 6152.77 1455.08 1313.1 935.211 923.539 673.983 591.681 581.261 396.513 392.749 390.6 389.51 332.813 318.452 264.787 236.858 235.095 225.891 215.889 209.86 184.867 181.961 173.823 154.747
threshold=1.0000000180025095e-35 0.69194079715480272 -0.68930681525732374 0.32184368042628275 -0.31557047303010349 1.3232081804028304 -1.3428485511029129 0.13282748263782651 -0.15945276358081079 0.48206879117371632 -0.49901461733543145 -0.98152953133889642 0.97651739577865782 43.070926798898121 53.844582220166636 51.834336157176104 -2.1694871607619022 2.0412660505752465 56.455325627124573 44.032097141720911 40.085469587692693 0.0098726130506440971 0.0096893776648246735 58.010260703542798 0.0080416833987834568 0.24654569933420589 0.014842998251862373 41.136640850138726 59.34549790768903 -0.0010806481193472628
decision_type=2 2 2 2 2 2 2 2 2 2 2 2 2 2 2 2 2 2 2 2 2 2 2 2 2 2 2 2 2 2
left_child=2 3 6 7 10 12 16 15 18 19 26 -8 27 -9 -10 29 -1 -7 24 -5 -11 -22 23 -12 -6 -15 28 -3 -4 -2
right_child=1 5 4 9 8 17 11 13 14 20 22 -13 -14 25 -16 -17 -18 -19 -20 -21 21 -23 -24 -25 -26 -27 -28 -29 -30 -31
leaf_value=0.049266200934225936 0.0028960539357635144 -0.026723136126799468 0.025835409971559271 -0.013630425764503969 0.012226020495476985 -0.045069041415420723 0.039283700336491999 -0.0048025554012889301 0.0067873133885472236 -0.018027722323747674 0.019110031457702081 0.032585496893551752 -0.039069940005169182 -0.011322887959098043 0.0010068021354526398 -0.0074784915523901634 0.045209662299241934 -0.049220020043084386 0.0069576678124512173 -0.020346653481763136 -0.025340612905831259 -0.032226941850876892 0.02390014045204681 0.012068288865865449 0.01811178693180179 -0.015566303718414156 0.032182877591229543 -0.033573119024037971 0.018434101707864647 -0.0028455411242658503
leaf_weight=62067.617494419217 5466.4557230770588 4008.9777723252773 26945.106360599399 8050.4106135517359 28114.317772164941 29635.45512111485 22919.235857829452 9606.5951133817434 33813.638696447015 3763.3749165087938 30803.195680469275 33129.798616454005 22465.330030277371 27551.189079225063 15610.739982306957 17189.726355358958 32898.598004803061 66270.018895357847 9081.7840162366629 30313.974639594555 28679.313643231988 5350.5224696844816 7892.8648285269737 4737.3067440837622 7013.5706032514572 16960.439812526107 3681.959076628089 28341.903029814363 3207.7222243249416 18587.358207076788
leaf_count=257397 21867 16238 108948 32294 112781 122124 93879 38452 135378 15143 123977 134794 91909 110416 62454 68806 135803 274507 36373 121989 115866 21669 31801 19018 28155 68072 14910 115276 12927 74365
internal_value=-4.08577e-06 -0.0279772 0.0279972 -0.0144672 0.0145554 -0.0433513 0.0432089 -0.00826065 0.00832176 -0.0222385 0.0221092 0.0353251 -0.0353261 -0.0114957 0.00496159 -0.00401558 0.0478614 -0.0479378 0.0120781 -0.0189377 -0.0255887 -0.0264243 0.0192133 0.0181718 0.0134016 -0.0129401 0.025826 -0.0327251 0.0250487 -0.00154064
internal_weight=644159 322241 321917 171519 170902 150722 151015 95361.8 93634.1 76157.6 77268.2 56049 54816.2 54118.2 49424.4 41243.5 94966.2 95905.5 44209.7 38364.4 37793.2 34029.8 43433.4 35540.5 35127.9 44511.6 33834.8 32350.9 30152.8 24053.8
internal_count=2617588 1308993 1308595 688939 686722 620054 621873 381978 375141 306961 311581 228673 223423 216940 197832 165038 393200 396631 177309 154283 152678 137535 174796 142995 140936 178488 136785 131514 121875 96232
is_linear=0
shrinkage=0.03


Tree=11
num_leaves=31
num_cat=0
split_feature=7 7 7 7 7 7 7 7 7 7 7 7 7 7 4 4 7 4 4 4 4 4 4 4 7 7 4 7 3 7
split_gain=530581 71103.8 70204 8495.38 7612.07 6927.46 5950.33 1421.54 1336.49 794.639 689.266 652.997 635.211 482.097 397.392 388.343 387.867 360.045 354.948 326.765 295.34 214.021 193.988 151.605 141.421 136.726 126.546 120.632 118.998 118.83
threshold=1.0000000180025095e-35 0.65816046613292445 -0.68930681525732374 -0.32539563052180703 0.24654569933420589 1.1882883430741817 -1.3428485511029129 0.42406435883567234 -0.15945276358081079 -0.48626683071710564 0.099015618537537861 1.8343509769697401 -0.95260495443903936 0.86986633093257215 44.554187589306075 42.319821664786545 -2.0958931223815571 53.678787579537122 52.137853779118835 45.979704233951018 51.90819358624271 59.03066418232833 60.444320724237215 37.624936157775331 0.56977647444466173 -0.074841010020715484 52.300053075952256 0.34081246510559388 0.00085257232064378703 -0.57813985534073975
decision_type=2 2 2 2 2 2 2 2 2 2 2 2 2 2 2 2 2 2 2 2 2 2 2 2 2 2 2 2 2 2
left_child=2 4 6 9 10 13 16 15 18 22 20 -7 -8 23 -12 -6 -1 25 -5 -9 -2 -11 29 -3 -21 -10 -16 -17 -19 -4
right_child=1 5 3 8 7 11 12 19 17 21 14 -13 -14 -15 26 27 -18 28 -20 24 -22 -23 -24 -25 -26 -27 -28 -29 -30 -31
leaf_value=0.048189816802411863 -0.00066726415582772181 -0.021386848565441503 0.027409088149133176 0.013983250025618744 -0.0092949024486038527 -0.042661026412540423 0.038011852210220763 -0.019227439180211227 0.0083807039558187312 0.019562915778229641 -0.0037380819885914625 -0.047976518361417558 0.031576471877575028 -0.036056536773232714 -0.0086724691177305982 -0.015420779235455984 0.044045904253804037 0.0033030236569754046 0.0086503978939898984 -0.02342665462724022 -0.0066292604989391301 0.012842755420380856 0.018191556657663369 -0.030847376861000798 -0.027640528538021229 0.0045298803700769318 -0.012352233277638038 -0.018787097528645127 -0.0019354695176508831 0.023790336274978612
leaf_weight=64016.355985343456 18189.047712147236 1631.1539164334536 16567.095821514726 28205.897195205092 7123.7440853714943 29208.49125225842 25336.681252464652 13192.857827812433 17546.434223562479 33312.929344505072 10054.48305849731 73177.614243388176 30464.384598627687 24972.836554780602 16636.207736507058 21633.776798069477 30061.730629757047 9197.973563849926 18678.926623478532 21588.780120611191 12697.930611878633 4900.643416389823 3518.7112838178873 25713.691322401166 10807.508420526981 15752.725029841065 17043.870714709163 17275.882581204176 6777.7371865510941 16300.612279728055
leaf_count=268100 72769 6607 67258 113308 28557 121080 104418 53227 70289 134322 40238 305966 124446 102485 66658 86945 125091 36801 74887 87289 50833 19687 14211 104828 43823 63058 68349 69607 27114 66027
internal_value=-1.6166e-05 -0.0272846 0.0272785 0.014127 -0.0136629 -0.0419222 0.0422621 -0.0194562 0.00823309 0.021724 -0.00654947 -0.0464606 0.0344991 -0.03304 -0.00897247 -0.0157367 0.0468662 0.004783 0.0118589 -0.0232114 -0.00311843 0.0187015 0.0248978 -0.0302838 -0.0248332 0.0065592 -0.0105349 -0.0169159 0.0010806 0.0256152
internal_weight=641587 320948 320639 170760 166244 154704 149879 91622.5 96159.7 74600 74621.5 102386 55801.1 52317.7 43734.6 46033.4 94078.1 49274.9 46884.8 45589.1 30887 38213.6 36386.4 27344.8 32396.3 33299.2 33680.1 38909.7 15975.7 32867.7
internal_count=2618278 1309261 1309017 686962 668295 640966 622055 369448 385457 301505 298847 427046 228864 213920 175245 185109 393191 197262 188195 184339 123602 154009 147496 111435 131112 133347 135007 156552 63915 133285
is_linear=0
shrinkage=0.03


Tree=12
num_leaves=31
num_cat=0
split_feature=7 7 7 7 7 7 7 7 7 7 7 7 7 7 4 7 4 4 4 4 1 4 4 1 7 1 1 1 4 1
split_gain=501594 68761.8 67268.5 8018.58 7850.88 6320.03 5783.25 1113.94 1111.94 946.961 905.986 637.614 566.54 459.438 406.091 375.94 350.496 339.968 315.287 313.833 268.969 230.72 216.938 195.161 190.57 175.896 166.249 163.428 182.708 155.318
threshold=0.00795334229536011 -0.67164687160721603 0.69194079715480272 -0.27806205017182645 0.29261168676258781 -1.2935700618252228 1.3232081804028304 0.48206879117371632 -0.42862446398285442 -0.11693464925953749 0.12403208781687645 -0.8986472648508057 0.94614981875712023 -1.8845366054590091 45.979704233951018 2.1168152216840799 43.919187607170073 55.536667426973629 50.330876731190052 48.148324918203706 0.0091797197243161082 42.832466008137125 53.013308770428459 0.0052461280950077517 -0.57813985534073975 0.0068679275838628802 0.0043228492498145659 0.015312199795753075 40.793689173837556 0.0054775854106887739
decision_type=2 2 2 2 2 2 2 2 2 2 2 2 2 2 2 2 2 2 2 2 2 2 2 2 2 2 2 2 2 2
left_child=1 5 4 8 10 13 12 16 20 17 19 -7 27 -1 -12 -8 -6 25 -11 -2 24 -9 -10 -23 -3 -5 -16 28 -4 -18
right_child=2 3 6 9 7 11 15 21 22 18 14 -13 -14 -15 26 -17 29 -19 -20 -21 -22 23 -24 -25 -26 -27 -28 -29 -30 -31
leaf_value=0.047032302186597021 -0.00032086791965351205 0.024892195686532413 -0.022685965116810362 0.0099847745313443332 -0.012095025352579255 0.03631130035781422 -0.043360568528727654 -0.018995504330722789 0.017766495423215033 0.0060893374582359962 -0.0057787331593986829 0.029882404569449999 -0.037072968580279843 0.042278446389509651 -0.010089242367663157 -0.047387563583360756 -0.017249664478383716 0.0052263956946303931 0.00069094826584903835 -0.0060532579274067992 0.027701579815843629 -0.023604933807978699 0.013034955547260967 -0.028675473120018558 0.020361607290328043 0.014899793717136163 -0.01430591312379016 -0.037457568284657655 -0.030980380530517968 -0.021482787003139117
leaf_weight=70686.635309100151 14128.595707029104 12650.040487855673 2674.2581789791584 26946.969796001911 9498.47259940207 27635.610020622611 31631.090591773391 6394.3921997249126 24682.844521284103 19636.699352249503 14108.310136139393 28008.429610550404 24769.572819814086 24855.147370144725 20621.81007373333 62430.588845580816 25128.168737977743 11391.081146270037 19313.090876713395 21947.539399534464 8893.5839481949806 21025.033082216978 13512.578415259719 10173.241623863578 24813.451898694038 8666.7824438363314 14237.375992536545 3086.8036357313395 23647.574881017208 11352.138626411557
leaf_count=299157 56519 51448 10899 108157 38153 114481 132686 25861 99578 78628 56495 114811 102613 104158 82773 263909 101379 45621 77277 87872 36164 85438 54383 41426 100529 34808 57164 12649 97057 45868
internal_value=-3.04996e-06 0.0263851 -0.0267941 0.0133246 -0.0138332 0.0411146 -0.0415363 -0.0203634 0.019884 0.00687195 -0.00741598 0.0330759 -0.0337272 0.045796 -0.0100737 -0.0460338 -0.0172307 0.0097383 0.00341266 -0.00380834 0.0230072 -0.0241943 0.016093 -0.0252592 0.021892 0.0111813 -0.0118118 -0.030908 -0.0301386 -0.0185675
internal_weight=638548 321693 316855 170507 168615 151186 148240 83571.4 84552.5 85954.6 85043.6 55644 54178.2 95541.8 48967.5 94061.7 45978.8 47004.8 38949.8 36076.1 46357.1 37592.7 38195.4 31198.3 37463.5 35613.8 34859.2 29408.6 26321.8 36480.3
internal_count=2617961 1319200 1298761 686593 678948 632607 619813 338125 342102 344491 340823 229292 223218 403315 196432 396595 185400 188586 155905 144391 188141 152725 153961 126864 151977 142965 139937 120605 107956 147247
is_linear=0
shrinkage=0.03


Tree=13
num_leaves=31
num_cat=0
split_feature=7 7 7 7 7 7 7 7 7 7 7 7 7 7 1 7 7 1 7 7 1 1 1 7 1 7 7 7 1 7
split_gain=474251 67655.1 62900.1 8365.66 7869.3 5739.45 4872.35 1193.43 1113.09 993.713 809.074 534.084 475.147 461.397 307.579 297.953 239.325 216.071 201.4 195.818 182.283 157.088 127.999 115.163 112.346 103.993 103.213 99.1584 87.1981 82.5929
threshold=0.016163504557094407 -0.68930681525732374 0.72640291432056292 -0.27806205017182645 0.34081246510559388 -1.2462679122145965 1.3726185237762465 0.18449608425479216 -0.42862446398285442 -0.1001010121042208 0.53055670418750922 -1.8845366054590091 1.0395380383307387 -0.87359793536271291 0.013997404354239197 2.2539935152924522 -0.57813985534073975 0.016892820086442387 -0.22222706017632821 0.091175939961702243 0.0098726130506440971 0.0063594502344155503 0.0056012884844439505 0.24654569933420589 0.010059447546979627 0.41364301125981973 -1.0459615142604206 -0.041047894035574121 0.0075702499791616522 -0.33502477427934657
decision_type=2 2 2 2 2 2 2 2 2 2 2 2 2 2 2 2 2 2 2 2 2 2 2 2 2 2 2 2 2 2
left_child=1 5 4 8 7 11 12 19 14 18 17 -1 22 26 16 -8 -3 25 28 -2 -12 29 -4 -9 -15 -6 -7 -11 -5 -10
right_child=2 3 6 9 10 13 15 23 21 27 20 -13 -14 24 -16 -17 -18 -19 -20 -21 -22 -23 -24 -25 -26 -27 -28 -29 -30 -31
leaf_value=0.046126880391706489 -0.0032299259378866605 0.024540975277878845 -0.030127266249571887 0.010635191315251239 -0.016092137210216906 0.036872629509305789 -0.043032312803259705 -0.010162176959878999 0.015779604427611067 0.0041375961463973902 -0.023842597747751069 0.041161715929023283 -0.037431748373461519 0.028087207114278676 0.029040052415306074 -0.046610817308395509 0.019912881294433214 -0.025225174591524274 0.0078318753878596561 -0.0069410845184363383 -0.029745565965016575 0.0186674617606352 -0.034166885535358557 -0.013300643135064133 0.033660775907949789 -0.019239220555961226 0.033152463435015579 0.0010013692311921713 0.015867760197423815 0.012386799631765153
leaf_weight=69907.28745560348 23402.416293546557 16045.546870484948 21302.820641666651 11907.768936425447 16252.380352973938 12535.814757317305 33432.173943594098 17942.694696545601 16191.156070947647 18398.381031170487 26765.75840768218 27194.454501152039 19450.920782074332 18723.727878645062 5727.9064784198999 57202.871139198542 27092.96110227704 4036.8540593534708 36458.785029366612 28241.162256896496 5738.2128202170134 11094.338911965489 10693.420006617904 25527.518811300397 3978.5972461551428 22761.217634484172 14858.305863142014 17901.646512031555 3782.8156591802835 10790.311332032084
leaf_count=299291 93670 65542 88049 47837 65639 52343 141842 72017 65390 73653 109239 114944 81366 77128 23402 244611 110052 16359 146251 113186 23479 44834 44182 102754 16406 92261 61774 71652 15206 43480
internal_value=-3.62158e-05 0.0254846 -0.02636 0.0128984 -0.0140843 0.0404814 -0.0411053 -0.00834271 0.0195068 0.00640243 -0.021312 0.0447368 -0.0337299 0.0322326 0.0225034 -0.0452913 0.0216348 -0.0186134 0.00905538 -0.00525946 -0.0248856 0.0156604 -0.0314784 -0.0120055 0.0290654 -0.0179286 0.0348561 0.00259101 0.0118976 0.0144233
internal_weight=635340 322590 312750 175392 170668 147198 142082 95113.8 86942.2 88449.4 75554.4 97101.7 51447.2 50096.4 48866.4 90635 43138.5 43050.5 52149.4 51643.6 32504 38075.8 31996.2 43470.2 22702.3 39013.6 27394.1 36300 15690.6 26981.5
internal_count=2617839 1329185 1288654 707299 688604 621886 600050 381627 352700 354599 306977 414235 213597 207651 198996 386453 175594 174259 209294 206856 132718 153704 132231 174771 93534 157900 114117 145305 63043 108870
is_linear=0
shrinkage=0.03


Tree=14
num_leaves=31
num_cat=0
split_feature=7 7 7 7 7 7 7 7 7 7 7 7 7 7 3 3 3 7 3 1 7 1 3 1 7 1 1 1 1 3
split_gain=449036 63217.1 62236 8552.84 6479.08 6464.71 4508.95 1153.04 1038.71 1016.57 595.384 585.56 526.691 436.903 351.957 340.151 318.608 301.104 273.048 221.249 217.876 207.045 199.486 189.633 177.954 176.53 176.442 152.241 138.381 113.413
threshold=1.0000000180025095e-35 0.74470806011211577 -0.65526002638972292 0.32184368042628275 -1.2462679122145965 -0.31557047303010349 1.3726185237762465 0.16697805801999108 0.51809426829189575 -0.18617036349547303 -0.48626683071710564 -0.8986472648508057 -1.8845366054590091 1.0067823542963521 -0.0010255941250231157 -0.00075573142042360678 0.00081618438921294471 2.3300950497084769 -0.00075573142042360678 0.012549859634838 0.065592071691857337 0.011404175210411366 0.00063780667492352873 0.010059447546979627 -0.074841010020715484 0.0062803302525546818 0.0070553641529819966 0.0095122280872733927 0.0039607593916218932 -0.00061340755030899342
decision_type=2 2 2 2 2 2 2 2 2 2 2 2 2 2 2 2 2 2 2 2 2 2 2 2 2 2 2 2 2 2
left_child=2 3 4 7 12 10 13 14 18 22 26 -6 -1 -3 -2 -9 24 -8 -5 -12 -16 29 25 -20 -11 -7 -4 -13 -17 -10
right_child=1 6 5 8 11 9 17 15 21 16 19 27 -14 -15 20 28 -18 -19 23 -21 -22 -23 -24 -25 -26 -27 -28 -29 -30 -31
leaf_value=0.04531803348254388 0.0016939257939205987 -0.030561796917590461 0.021152538612652656 -0.012798231529867476 0.034437342559261119 0.011020725753793438 -0.042329094569381429 -0.005569710198705757 -0.019951692167005958 0.0075160603114072149 0.016090369739292974 0.027189361651146916 0.040358593683609792 -0.036289497900343942 -0.0027157815663947666 -0.010451961481281599 0.00028326815268206229 -0.045899373600747251 -0.017659749234091898 0.022604917487648982 -0.0070298918207884146 -0.029567541521836625 0.0072703520305541138 -0.02351012166113323 0.0037300599974775944 0.016326200957526616 0.026339785944055047 0.032674186014593924 -0.014232320322600788 -0.024248184904632274
leaf_weight=69068.656062245369 7578.9111846983433 26761.435464501381 22934.376412659883 9068.9674349874258 24759.61134968698 19840.505486235023 35423.783654168248 8641.0169037729502 7183.8993413299322 27341.256535738707 35103.969359189272 24627.148879557848 26881.110035955906 21816.885468289256 17547.659505829215 18700.28869971633 10976.886877000332 54147.360090151429 30520.762168869376 5423.8511174768209 26373.195304527879 5547.6086936146021 8470.8260684758425 5973.636612445116 18901.10685351491 7898.2384973019361 7979.454111918807 5626.8783203959465 16355.276805996895 24558.921818643808
leaf_count=299366 30325 111214 93679 36625 104008 79851 152004 34659 29344 109661 142168 101858 114752 91944 70240 75224 43938 234423 123760 22036 105688 22808 34009 24294 75673 31840 32714 23324 65820 100721
internal_value=4.34724e-06 -0.0252677 0.0253056 -0.0134518 0.0392227 0.0125623 -0.040496 -0.00731756 -0.0204996 0.00736753 0.0193557 0.0310136 0.043929 -0.0331348 -0.00427617 -0.0109019 0.00487802 -0.0444879 -0.0174599 0.0169627 -0.00530638 -0.0242132 0.0113013 -0.018618 0.00596868 0.0125319 0.0224923 0.0282105 -0.0122161 -0.0232765
internal_weight=632033 316200 315834 178050 150963 164870 138149 95196.3 82853.8 93428.8 71441.7 55013.6 95949.8 48578.3 51499.8 43696.6 57219.3 89571.1 45563.4 40527.8 43920.9 37290.4 36209.6 36494.4 46242.4 27738.7 30913.8 30254 35055.6 31742.8
internal_count=2617970 1309093 1308877 719508 643308 665569 589585 381956 337552 374972 290597 229190 414118 203158 206253 175703 229272 386427 184679 164204 175928 152873 145700 148054 185334 111691 126393 125182 141044 130065
is_linear=0
shrinkage=0.03


Tree=15
num_leaves=31
num_cat=0
split_feature=7 7 7 7 7 7 7 7 7 7 7 7 4 7 7 4 4 4 7 4 4 4 4 4 7 7 0 4 4 7
split_gain=425091 60599.6 60288.8 8051.95 7914.74 4430.37 4383.52 1042.27 1034.29 1003.36 960.105 430.836 428.372 410.869 368.265 342.634 338.955 334.912 315.363 313.086 232.75 215.33 186.839 167.726 158.443 138.003 120.445 116.724 115.112 106.399
threshold=1.0000000180025095e-35 0.74470806011211577 -0.74396047097085971 0.31215088736605429 -0.32539563052180703 1.3726185237762465 -1.3428485511029129 -0.15945276358081079 0.54370389022280896 0.12403208781687645 -0.51222668939046623 1.0067823542963521 42.456302481522251 -1.0135229586950156 -2.1694871607619022 51.378626781659584 46.494047696533421 55.826677326454451 2.0412660505752465 53.094745328088599 55.630158675417057 40.268973129508346 51.524662159511536 60.444320724237215 0.41364301125981973 -0.074841010020715484 -16.7472984724653 39.240268675840817 42.710016740616027 -0.60790143700696231
decision_type=2 2 2 2 2 2 2 2 2 2 2 2 2 2 2 2 2 2 2 2 2 2 2 2 2 2 2 2 2 2
left_child=2 3 6 9 10 11 14 15 16 19 23 27 -11 -8 -1 -6 -5 25 -7 28 -12 -10 -14 29 -18 -9 -19 -3 -2 -4
right_child=1 5 4 8 7 18 13 17 21 12 20 -13 22 -15 -16 -17 24 26 -20 -21 -22 -23 -24 -25 -26 -27 -28 -29 -30 -31
leaf_value=0.04491801766083766 0.002177509433688839 -0.023230317955922772 0.025691924445842718 -0.013638376808917566 0.012790570613797068 -0.040859046306326578 0.03550893596436823 0.0073196719373479187 -0.016793597592346048 -0.0034634136338935638 0.018181681725716822 -0.035509930708488374 -0.0088237414421079262 0.029807135191168507 0.040872853131461821 0.0076081791474627387 -0.016745144988205833 0.0097611919259289644 -0.044810992404841189 -0.0069489817364099008 0.013010637523845004 -0.024856224271742292 -0.01266751156057149 0.017403638550174239 -0.0207104077992947 0.0036955606584979442 -0.0012148197640537818 -0.030404820384809267 -0.0024930884609129411 0.022341447428400215
leaf_weight=58766.603034257889 6384.1967946887016 2246.6868976354599 18418.013416409492 16568.936253458261 26089.985994905233 25829.659348830581 19633.315943688154 19997.968406140804 3335.4181651175022 8540.958721190691 32836.21046037972 21592.916926175356 22322.272607177496 27216.451044872403 31176.777761533856 20518.021987125278 17411.657889962196 984.13373549282551 62713.423575714231 13649.315956696868 10305.83161213994 28804.761108860373 23251.743514880538 3705.8897909075022 19024.872610926628 17946.428992718458 10385.733622282743 24404.304726049304 18535.581437662244 16068.7678617239
leaf_count=258162 25539 9320 76227 67083 105225 111785 83496 80203 13607 34220 133598 91775 89708 113924 135252 82463 70650 3939 275001 54687 41756 118760 93647 15194 77672 71864 41556 102114 74188 65947
internal_value=-1.38809e-05 -0.0246606 0.0246773 -0.0131131 0.0131302 -0.0396728 0.03964 0.00729271 -0.0197733 -0.00699443 0.0200144 -0.0323568 -0.00962957 0.0321973 0.0435163 0.0105094 -0.0171979 0.00425243 -0.0436586 -0.00329699 0.0169467 -0.0240201 -0.0107851 0.0234792 -0.0188161 0.00560573 -0.000264002 -0.0298009 -0.00129649 0.0241315
internal_weight=628667 314617 314050 177830 177257 136787 136793 95922.3 85145.6 92684.1 81334.7 48243.9 54115 46849.8 89943.4 46608 53005.5 49314.3 88543.1 38569.1 43142 32140.2 45574 38192.7 36436.5 37944.4 11369.9 26651 24919.8 34486.8
internal_count=2618562 1309756 1308806 719761 717972 589995 590834 385250 347772 371989 332722 203209 217575 197420 393414 187688 215405 197562 386786 154414 175354 132367 183355 157368 148322 152067 45495 111434 99727 142174
is_linear=0
shrinkage=0.03


Tree=16
num_leaves=31
num_cat=0
split_feature=7 7 7 7 7 7 7 7 7 7 7 7 7 7 4 4 4 7 4 1 4 4 4 1 1 4 7 7 1 7
split_gain=403619 58649.1 58052.6 6866.48 6864.86 5015.01 4995.98 1117.92 916.752 838.117 641.406 525.915 513.515 378.117 366.806 324.362 323.611 304.912 262.193 259.913 259.299 241.526 210.38 199.73 171.698 164.166 157.22 151.738 151.115 149.218
threshold=1.0000000180025095e-35 0.70887662395279438 -0.70685876979330109 -0.33502477427934657 0.30266102822470947 -1.3428485511029129 1.3726185237762465 -0.18617036349547303 0.44642836039952427 0.16697805801999108 -0.51222668939046623 -0.98152953133889642 1.0067823542963521 -2.1694871607619022 51.90819358624271 51.524662159511536 50.108794548938242 2.1168152216840799 40.085469587692693 0.0053577398457897484 50.845177467342147 44.961087577821608 57.38303882523202 0.0096893776648246735 0.0070553641529819966 40.793689173837556 -0.074841010020715484 0.56977647444466173 0.0095122280872733927 0.074098056812691979
decision_type=2 2 2 2 2 2 2 2 2 2 2 2 2 2 2 2 2 2 2 2 2 2 2 2 2 2 2 2 2 2
left_child=2 4 5 10 9 13 12 20 21 14 24 -7 -3 -1 29 25 -9 -8 -10 27 -5 -6 23 -12 -4 -11 -18 -20 -13 -2
right_child=1 6 3 7 8 11 17 16 18 15 22 28 -14 -15 -16 -17 26 -19 19 -21 -22 -23 -24 -25 -26 -27 -28 -29 -30 -31
leaf_value=0.044181031576606015 0.00027644832190197626 -0.028776337492924728 0.021174728500652686 0.013223098023471245 -0.010667091463180624 0.034504180083148914 -0.040343651319778302 0.0068069502991238446 -0.014668984007718577 -0.0024420283567716298 0.016804649140389726 0.027348829790946359 -0.03481414112057464 0.040060618274892691 -0.0071950744924639803 -0.013180074774557109 0.0041234101966318827 -0.044153739917150707 -0.018433760350568828 -0.025515640500755287 0.008453708733999114 -0.016411093017531617 0.012106061686469263 0.023138672844202478 0.026119664082963154 -0.0089214949931699459 -0.00037578229025731169 -0.022794795746231663 0.032891391200563211 -0.0039553335005880329
leaf_weight=57906.337881609797 13656.994248896837 31249.506586104631 24500.699091404676 21996.372099727392 8768.8333764970303 21968.914025440812 28014.381962880492 28106.358758345246 4735.6658108532429 4403.6743225455284 28181.664948791265 24149.657210275531 21406.06233163178 30906.659232974052 21161.596857622266 16599.021620079875 17125.965613201261 59338.752632841468 15217.094828367233 13740.890768483281 19243.798245236278 26595.63627204299 7042.2628705501556 5337.6373985111713 8552.5364914685488 17539.562577500939 11809.885526388884 13673.923397958279 5459.2889483422041 16630.945817828178
leaf_count=257941 54644 131327 101077 88906 35403 94207 122776 112777 19284 17647 114837 101469 91795 135671 84874 66967 68640 263848 62328 56750 77461 108150 28548 21882 35445 70541 47259 56505 22998 66617
internal_value=-1.14041e-05 -0.0241022 0.0241136 0.0124242 -0.0124053 0.0384262 -0.038532 0.00723492 -0.0186429 -0.00667064 0.0193522 0.0309844 -0.0312315 0.0427476 -0.00416469 -0.0100156 0.00451427 -0.0429323 -0.021372 -0.0221162 0.0109978 -0.0149872 0.0168233 0.0178139 0.022455 -0.00762134 0.00228716 -0.0204985 0.0283718 -0.00204725
internal_weight=625021 312733 312288 171897 172724 140391 140009 98282.4 82732 89991.8 73614.8 51577.9 52655.6 88813 51449.5 38542.3 57042.2 87353.1 47367.6 42631.9 41240.2 35364.5 40561.6 33519.3 33053.2 21943.2 28935.9 28891 29608.9 30287.9
internal_count=2618574 1309456 1309118 696832 699710 612286 609746 395043 338420 361290 301789 218674 223122 393612 206135 155155 228676 386624 194867 175583 166367 143553 165267 136719 136522 88188 115899 118833 124467 121261
is_linear=0
shrinkage=0.03


Tree=17
num_leaves=31
num_cat=0
split_feature=4 4 0 4 0 3 2 3 4 3 0 2 0 3 4 6 3 0 4 4 1 6 3 3 3 3 1 6 3 0
split_gain=615.626 223.727 104.717 96.7099 60.5578 48.2193 47.9158 38.5751 34.5481 37.2384 28.7458 28.2392 27.7583 31.6778 26.9083 24.9607 24.7539 56.1157 24.5238 23.9774 31.5696 20.2654 19.9544 18.6008 18.5475 18.5405 18.0735 18.0143 17.4662 17.4329
threshold=52.214716378669166 40.085469587692693 -17.20849103095745 58.424553379821013 -16.7472984724653 0.00016689981123970185 1.0749389959600331 -0.00017083354961149001 46.578384115231778 0.00039759090387408682 -17.557326969908527 0.85193147090726951 -17.277827513016071 8.2724630542289324e-05 62.377273326060838 -0.99428911679529641 -8.5560424124276444e-05 -17.277827513016071 71.889463424306896 36.962041488569263 0.05577667038849788 -0.98285265264473198 -0.0015247144057117716 -0.0011715145673779849 -0.00028077097684854336 -0.0020463321082249924 0.0066917892316687693 0.96304284483113511 -6.357346587506816e-05 -14.586394046363683
decision_type=2 2 2 2 2 2 2 2 2 2 2 2 2 2 2 2 2 2 2 2 2 2 2 2 2 2 2 2 2 2
left_child=1 2 7 12 5 -5 14 -1 9 16 -7 -12 13 28 -6 -4 17 24 -13 20 27 -8 -14 -22 -3 -10 -21 -17 -2 -23
right_child=3 8 15 4 6 10 21 -9 25 -11 11 18 22 -15 -16 19 -18 -19 -20 26 23 29 -24 -25 -26 -27 -28 -29 -30 -31
leaf_value=-0.0048424004722491471 -0.0059613833229285648 -0.0086643034289960331 0.0061254941774842092 -0.0030579892165892627 -0.0021630465812725818 0.0054707833170292795 -0.004228287772456236 0.0018351023581180482 0.0022196467905020536 -0.0011898426518131559 0.0040309223480298273 -5.9440002046169725e-06 0.0026196537431037183 0.0042568203678924037 -0.0035031219973037041 0.0037996864808842947 0.0018497910366737677 0.00084869895435362515 -0.0085190927125966577 0.0025941630636103466 0.0013089218755635067 -0.0020946581414363731 -0.00081222632267122675 -0.005153702116476362 -0.0023682473898930818 0.00013255608406832626 0.0010095619992920586 0.0010711709229142598 0.00046027637215106671 -0.00021827532528519793
leaf_weight=2327.4238779842854 457.65910203754902 559.37247614562511 1890.8728862851858 2490.6936804354191 36904.639272943139 1518.6502534002066 1654.6991141289473 1169.1268634796143 3915.3274007886648 7857.9986756443977 1527.3053701817989 2687.8512703627348 1539.5221245288849 2138.8481159210205 21259.516139268875 23542.159559205174 22132.939917266369 102419.90505218506 342.45946787297726 16917.482560411096 2145.5912645608187 6369.1875510364771 150053.88363005221 491.8561684936285 1699.735919713974 175289.54888691008 10500.656200423837 2400.7784953564405 2256.3114192187786 14832.731093883514
leaf_count=9801 1929 2354 7960 10497 155482 6399 6980 4917 16500 33139 6428 11328 6493 9019 89561 99102 93308 431577 1444 71173 9029 26863 632670 2073 7159 739140 44222 10100 9512 62555
internal_value=1.03144e-05 0.000774962 0.00243132 -0.00115595 -0.00194194 0.000456659 -0.00219557 -0.00260979 0.000451014 0.000814086 0.0018976 0.000706033 -0.000705856 0.00152739 -0.00265291 0.00273584 0.000938269 0.000745524 -0.000970519 0.00262128 0.00322934 -0.00103169 -0.000777356 0.000102214 -0.00393034 0.000178168 0.00198735 0.00354724 -0.00062441 -0.000782025
internal_weight=621295 375261 61385.9 246034 89587.7 8566.96 81020.8 3496.55 313875 134670 6076.27 4557.62 156446 4852.82 58164.2 57889.4 126812 104679 3030.31 55998.5 28580.4 22856.6 151593 2637.45 2259.11 179205 27418.1 25942.9 2713.97 21201.9
internal_count=2618714 1581554 258377 1037160 377537 36096 341441 14718 1323177 567537 25599 19200 659623 20460 245043 243659 534398 441090 12772 235699 120304 96398 639163 11102 9513 755640 115395 109202 11441 89418
is_linear=0
shrinkage=0.03


Tree=18
num_leaves=31
num_cat=0
split_feature=7 7 7 7 7 7 7 7 7 7 7 7 7 7 4 4 7 4 4 4 4 4 4 7 7 0 7 4 4 7
split_gain=380919 57156.9 55414.9 6981.05 6136.04 5748.08 4301.65 1032.65 985.177 794.95 620.997 593.422 418.797 387.705 386.212 337.407 306.687 270.439 259.743 209.952 205.585 201.611 189.591 142.793 141.116 129.251 128.181 124.547 112.254 108.946
threshold=0.00795334229536011 -0.67164687160721603 0.74470806011211577 0.34081246510559388 -0.25895963978249253 -1.3428485511029129 1.3726185237762465 0.18449608425479216 -0.42862446398285442 0.51809426829189575 -0.87359793536271291 -0.091728640855903765 1.0067823542963521 -2.1694871607619022 46.744047466411693 47.330931057028174 2.3300950497084769 52.137853779118835 46.744047466411693 40.793689173837556 50.036366882181404 58.424553379821013 53.013308770428459 0.082627804723420656 -1.0459615142604206 -17.20849103095745 -0.57813985534073975 37.624936157775331 36.962041488569263 0.074098056812691979
decision_type=2 2 2 2 2 2 2 2 2 2 2 2 2 2 2 2 2 2 2 2 2 2 2 2 2 2 2 2 2 2
left_child=1 5 3 7 8 13 12 14 21 18 24 17 27 -1 25 28 -8 -6 -5 -11 -13 26 -10 -16 -7 -2 -3 -4 -9 -27
right_child=2 4 6 9 11 10 16 15 22 19 -12 20 -14 -15 23 -17 -18 -19 -20 -21 -22 -23 -24 -25 -26 29 -28 -29 -30 -31
leaf_value=0.043486343425162124 -0.013207310139575396 0.023235336865168994 -0.020223652685839255 -0.012931512805088649 0.0093482231965039738 0.034396555961299834 -0.040014431842419311 -0.00089829471012508536 0.015150202492389766 -0.016207542183746315 0.026165553763146273 0.0047286127560165593 -0.034120603266436525 0.039285244229496238 -0.004066401565279338 -0.012639247577695073 -0.04368607451463611 0.0048129339954293502 -0.018071013366606301 -0.023313020297263135 -0.00014787135813187913 0.015145107187159073 0.010996071634238538 -0.0078482977895219276 0.030341855972391203 0.0027920566588489114 0.01958932405205718 -0.028969540703730777 -0.0081613133372140569 -0.002173700993159838
leaf_weight=57026.349321201444 724.49958649277687 13124.20135910809 1568.8001054227352 13147.521199896932 29525.258256614208 16883.548326656222 34142.972264885902 2246.7604577243328 27816.435173273087 4240.4056349098682 24758.042049333453 15242.950300514698 21232.967828676105 30495.923432871699 15783.312024995685 27994.653514549136 51975.189215764403 19753.924972802401 27165.629538297653 32563.799787551165 15892.35334789753 6611.6105147153139 15365.826177626848 20873.188008710742 14459.435282662511 6437.3031419813633 25898.751740574837 24706.511337965727 12986.240640804172 10397.418057769537
leaf_count=257746 2901 54505 6570 53396 118918 73169 151918 9012 113154 17380 104242 61083 91902 135523 63228 113203 234517 79242 111166 135357 63602 27073 62182 83848 61871 25751 106590 104730 52252 41632
internal_value=-2.0622e-05 0.0232985 -0.0236929 -0.0125627 0.0114855 0.0372176 -0.0382325 -0.00722543 0.016921 -0.0193065 0.0297202 0.0054819 -0.030984 0.042023 -0.00446764 -0.010684 -0.0422309 0.00753035 -0.0163952 -0.0224948 0.00223959 0.0199948 0.0136723 -0.00622007 0.032527 -0.000809149 0.0208161 -0.0284481 -0.0070902 -0.000274829
internal_weight=621042 312855 308187 174561 169231 143623 133626 97443.4 88816.8 77117.4 56101 80414.5 47508.3 87522.3 54215.7 43227.7 86118.2 49279.2 40313.2 36804.2 31135.3 45634.6 43182.3 36656.5 31343 17559.2 39023 26275.3 15233 16834.7
internal_count=2617663 1318900 1298763 709126 686349 632551 589637 391827 363504 317299 239282 322845 203202 393269 217360 174467 386435 198160 164562 152737 124685 188168 175336 147076 135040 70284 161095 111300 61264 67383
is_linear=0
shrinkage=0.03


Tree=19
num_leaves=31
num_cat=0
split_feature=4 4 4 3 5 2 5 6 6 6 3 3 6 1 4 3 2 6 6 4 3 2 5 1 4 5 2 3 1 4
split_gain=553.583 193.861 86.6742 53.983 44.8357 39.2457 37.0724 44.657 30.7071 26.2979 24.5721 23.2542 20.7826 20.6476 29.034 19.3372 18.6427 29.6273 18.2188 15.3554 14.8516 15.7487 14.2806 14.0354 13.8646 13.8101 13.7355 33.137 14.7815 13.68
threshold=51.602223278089745 40.793689173837556 58.726335883093817 -0.00055784781532294196 -0.10452846326765322 1.0533862184241007 -0.19080899537654467 0.61048935452158493 -0.90164176183622413 -0.98285265264473198 0.00062394115386005115 0.000871542809416606 0.64111330583356219 0.003555475758086955 37.951835110077262 -0.0012387810953561589 0.84575343244163126 0.58954745032802769 -0.2672383760782569 37.951835110077262 -0.0079922891645766176 1.1332593219112488 -0.26933941297166591 0.0073576658970036929 68.981792266807005 0.45593220742825186 0.75916585323780172 -5.6079119558749887e-05 0.0031098242940056672 32.727412288540037
decision_type=2 2 2 2 2 2 2 2 2 2 2 2 2 2 2 2 2 2 2 2 2 2 2 2 2 2 2 2 2 2
left_child=1 3 4 8 16 11 10 26 19 -7 18 12 24 14 -10 -6 17 -2 -3 -1 -15 29 -18 -5 -4 -13 27 -8 -29 -22
right_child=2 6 5 23 15 9 7 -9 13 -11 -12 25 -14 20 -16 -17 22 -19 -20 -21 21 -23 -24 -25 -26 -27 -28 28 -30 -31
leaf_value=0.0055018005226155084 -9.0764066153144202e-05 0.00048308491222561715 -0.0019859756860339688 0.0014262820216915976 0.0023656224851790219 -0.0042484824352026279 -0.0031513678475863548 -0.00062136243645420294 0.0049939439133806105 -0.00064103574654278774 -0.00045336803766211599 -0.0024089064042385642 -0.00031616491957721723 0.0047655485072268348 0.0021453564332783079 -0.0011774725582391666 -0.00053164150877205 0.0028579658634463796 0.0012647541161481864 0.0027719647673624401 0.0037368268082929286 0.00069712693089466361 0.00076812755818679427 -0.00040030053625432407 -0.0057734090922595535 -0.0037746671895198983 0.00053513762622839009 0.0038140030683813833 -0.0013803610584178347 0.0018671630724913177
leaf_weight=4514.6168911457062 10093.910717561841 44742.139076545835 17743.537991508842 8407.0269702374935 1406.5911527872086 1958.7290268391371 2897.608933031559 50127.321307480335 5549.8960428088903 25285.972181767225 12443.680407091975 20727.047825068235 7662.9518392235041 1601.8882566839457 7676.5297527760267 92288.997716769576 62948.267205506563 4403.877804338932 67061.037154316902 3153.330403521657 4278.5136651396751 8508.5611628741026 8652.6634754985571 6886.7574300169945 914.08888351917267 9828.5440349280834 103607.28884898126 1277.424529582262 801.91652458906174 19943.22152043879
leaf_count=19127 42814 189828 75226 35592 5966 8309 12292 212628 23492 107296 52794 87840 32479 6785 32489 391567 267115 18678 284506 13353 18101 36061 36721 29192 3877 41652 439562 5421 3404 84440
internal_value=-2.37622e-06 0.000773838 -0.00104201 0.00218113 -0.000670127 -0.00183683 0.000423098 0.000119271 0.00261792 -0.000900536 0.000811199 -0.0022853 -0.00163161 0.00233378 0.00334093 -0.00112426 -0.000175919 0.000805083 0.000951948 0.0043797 0.00194569 0.00180754 -0.000374561 0.000603804 -0.00217183 -0.00284833 0.000461183 -0.00107815 0.00181105 0.00219756
internal_weight=617394 353479 263915 70520.3 179794 84120.9 282958 158712 55226.6 27244.7 124247 56876.2 26320.6 47558.6 13226.4 93695.6 86098.7 14497.8 111803 7667.95 34332.2 32730.3 71600.9 15293.8 18657.6 30555.6 108584 4976.95 2079.34 24221.7
internal_count=2618607 1499067 1119540 298632 762861 356679 1200435 673307 233848 115605 527128 241074 111582 201368 55981 397533 365328 61492 474334 32480 145387 138602 303836 64784 79103 129492 460679 21117 8825 102541
is_linear=0
shrinkage=0.03


Tree=20
num_leaves=31
num_cat=0
split_feature=7 7 7 7 7 7 7 7 7 7 7 7 7 4 7 7 4 4 4 4 1 4 1 4 1 1 4 4 1 1
split_gain=360966 56464.2 52585.2 7005.19 6274.18 4601.36 4297.94 1072.75 848.128 765.389 713.754 528.888 379.913 360.75 310.096 296.827 295.568 283.042 250.873 238.959 211.21 203.426 229.933 199.763 199.931 164.771 144.36 140.656 138.874 137.019
threshold=0.016163504557094407 -0.72473071907044739 0.74470806011211577 -0.32539563052180703 0.32184368042628275 -1.3913967341376943 1.3726185237762465 -0.11693464925953749 0.51809426829189575 0.19328020395316564 -0.51222668939046623 -1.0135229586950156 1.0395380383307387 46.325095963980097 -2.1694871607619022 1.9001468993985184 55.927443903133039 46.494047696533421 47.496746039158005 53.765030030701062 0.0063594502344155503 60.444320724237215 0.0096893776648246735 42.319821664786545 0.0052461280950077517 0.0076800108735807148 56.026947837431763 58.283779295973979 0.0033635248511111539 0.0083014611279087127
decision_type=2 2 2 2 2 2 2 2 2 2 2 2 2 2 2 2 2 2 2 2 2 2 2 2 2 2 2 2 2 2
left_child=1 5 4 10 9 14 12 16 17 13 25 -7 -4 -2 -1 -8 20 -6 -11 -9 -5 22 -12 -10 -25 27 -15 -3 -19 -13
right_child=2 3 6 7 8 11 15 19 23 18 21 29 -14 26 -16 -17 -18 28 -20 -21 -22 -23 -24 24 -26 -27 -28 -29 -30 -31
leaf_value=0.042835700929473371 -0.00093937155915960169 0.02112037766626013 -0.028106605259534134 0.0088156489414610451 -0.012117486082800395 0.033696783539424444 -0.038392164008974931 0.0041725342672989663 -0.016585427821310894 -0.0069501357870128096 0.015350797129315209 0.026397469096838974 -0.033626459005359266 -0.0049857937058933504 0.038957508067153424 -0.042573019487624916 0.0049851946112500376 -0.015107952031340143 -0.012179965331634951 -0.00070840811319971479 0.013418514418802079 0.0093734012147009636 0.021665768096154614 -0.021034538793816906 -0.026185063227497488 0.025158378688303208 -0.0089726916976667192 0.014473032857503182 -0.019135696051284727 0.031419680367098066
leaf_weight=56227.929896220565 16496.298316895962 23607.335446208715 28587.749008744955 33733.020640790462 14228.659035667777 21256.608195364475 20180.424410000443 28140.086298331618 5677.7875764667988 12921.931709751487 32446.287268385291 22993.536186292768 18554.140194877982 25562.143817901611 27950.849384307861 64682.621735602617 13458.591058269143 14652.92709441483 22882.80803604424 13290.466622039676 12231.048397779465 4155.9763452708721 6185.595502153039 20863.05405844748 10092.103640809655 8283.9343123137951 12020.023262560368 3271.6428421586752 16326.247087731957 6256.7322570830584
leaf_count=258020 66039 98403 122116 136144 57829 93182 90434 112784 23391 51961 132747 98061 81162 102583 125856 295862 54056 59999 92597 53181 49488 16869 25499 86997 42309 34705 48309 13513 67044 26772
internal_value=9.72138e-07 0.0225831 -0.0233069 0.0115329 -0.0123625 0.0372529 -0.0375442 0.00631234 -0.0183719 -0.00689054 0.0182871 0.0300929 -0.0302798 -0.00463782 0.0415485 -0.0415793 0.00889581 -0.015622 -0.0102928 0.0026068 0.0100407 0.0156839 0.0163625 -0.021765 -0.0227145 0.0214543 -0.00626114 0.0203118 -0.0172312 0.0274728
internal_weight=617219 313490 303729 178804 171724 134686 132005 100853 81840.8 89883.2 77950.8 50506.9 47141.9 54078.5 84178.8 84863 59422.7 45207.8 35804.7 41430.6 45964.1 42787.9 38631.9 36632.9 30955.2 35162.9 37582.2 26879 30979.2 29250.3
internal_count=2617912 1329280 1288632 727389 699058 601891 589574 405653 337569 361489 321736 218015 203278 216931 383876 386296 239688 184872 144558 165965 185632 175115 158246 152697 129306 146621 150892 111916 127043 124833
is_linear=0
shrinkage=0.03


Tree=21
num_leaves=31
num_cat=0
split_feature=7 7 7 7 7 7 7 7 7 7 7 7 7 4 7 4 7 4 4 4 4 7 4 7 7 4 7 4 0 0
split_gain=342387 53023.5 52078.4 6823.76 6232.09 4293.39 4179.61 1144.32 1036.79 703.79 528.07 417.418 379.119 335.671 320.937 318.848 306.469 270.549 238.481 231.299 221.964 157.582 155.637 144.074 140.608 123.443 122.675 111.584 106.405 106.008
threshold=0.00795334229536011 -0.74396047097085971 0.74470806011211577 -0.33502477427934657 0.37086368641819439 -1.3913967341376943 1.3726185237762465 0.19328020395316564 -0.15088571190389519 -0.5641413239265668 0.56977647444466173 -1.0135229586950156 1.0395380383307387 45.337344480419908 -2.1694871607619022 43.070926798898121 2.0412660505752465 57.626514986735323 55.536667426973629 60.86063908664034 43.198307573349958 -0.2318935837491363 41.29375709626656 0.082627804723420656 -0.42862446398285442 38.770590166386363 -0.074841010020715484 60.444320724237215 -17.20849103095745 -16.7472984724653
decision_type=2 2 2 2 2 2 2 2 2 2 2 2 2 2 2 2 2 2 2 2 2 2 2 2 2 2 2 2 2 2
left_child=1 5 4 9 7 14 12 13 17 27 20 -7 25 28 -1 -9 -8 21 26 24 -6 -5 -12 -15 -11 -4 -10 -3 -2 -20
right_child=2 3 6 8 10 11 16 15 18 19 22 -13 -14 23 -16 -17 -18 -19 29 -21 -22 -23 -24 -25 -26 -27 -28 -29 -30 -31
leaf_value=0.042236704389087255 -0.012474635098470186 0.022763659952070761 -0.020628047538385336 0.012083261303119958 -0.012165358637228316 0.032763308067473358 -0.038111494501925088 -0.0053777269308131394 0.006339496846517096 0.018322262183038285 -0.01616024073613789 0.027098453181009324 -0.033088653285061741 -0.0036066485646637316 0.03826428773341535 -0.011770920697824204 -0.042107848033860418 0.004605254882880782 0.0089175240857582126 0.0096760530906168218 -0.017777177575266437 0.0084281146356163811 -0.023009817621460017 -0.0071808998665170475 0.014974495810512502 -0.028114832099514105 0.0028893104862885151 0.016332448048670622 8.4639427565385184e-05 -0.0012195777435118171
leaf_weight=55250.039515182376 633.3458551466465 24951.362363994122 2159.5173421502113 23274.95539341867 7779.8834379315376 21035.082737445831 24609.065428003669 8541.3630459457636 17640.118315905333 25089.528179481626 3436.2906082123518 26534.977254405618 18338.909182488918 17234.650933682919 27609.487732961774 39504.569625198841 59103.108950927854 8677.5974531471729 1014.0556662529707 4493.82941827178 34595.458331137896 19542.646794736385 23335.706580847502 24702.482212930918 20612.748810172081 26142.068606451154 19564.133743822575 2703.3386866301298 14146.461668550968 10880.029975876212
leaf_count=257554 2537 105056 9166 94443 31701 93155 111963 34350 70849 103844 14192 114130 81033 69060 125991 160338 274795 34890 4060 18314 142805 78854 98162 99334 84368 112606 78382 11266 56624 43537
internal_value=5.24942e-08 0.0222503 -0.0225874 0.0116234 -0.0118419 0.036789 -0.0369233 -0.00722794 0.00646238 0.018292 -0.0188321 0.029604 -0.029725 -0.00434205 0.0409135 -0.0106345 -0.0409335 0.00943628 0.00334316 0.016174 -0.0167472 0.0104152 -0.0221313 -0.00571213 0.0168127 -0.0275443 0.00452532 0.0221356 -0.000454359 -0.00035464
internal_weight=613137 308874 304263 178444 173910 130430 130353 104763 100594 77850.8 69147.3 47570.1 46640.5 56716.9 82859.5 48045.9 83712.2 51495.2 49098.3 50196.1 42375.3 42817.6 26772 41937.1 45702.3 28301.6 37204.3 27654.7 14779.8 11894.1
internal_count=2617359 1318693 1298666 727863 709103 590830 589563 422243 405015 322848 286860 207285 202805 227555 383545 194688 386758 208187 196828 206526 174506 173297 112354 168394 188212 121772 149231 116322 59161 47597
is_linear=0
shrinkage=0.03


Tree=22
num_leaves=31
num_cat=0
split_feature=7 7 7 7 7 7 7 7 7 7 7 7 7 4 4 7 4 7 4 1 4 1 4 4 1 1 4 7 1 3
split_gain=324063 51353.9 50440.5 6391.27 6161.2 4258.94 3877.54 1145.15 877.235 798.103 514.939 418.786 376.677 334.215 313.767 310.755 270.89 265.302 220.902 213.896 204.69 195.397 187.041 179.882 222.541 163.814 171.187 162 158.061 157.303
threshold=1.0000000180025095e-35 0.74470806011211577 -0.76348671089275111 -0.31557047303010349 0.37086368641819439 1.3726185237762465 -1.4450975144744374 0.17588307906751158 -0.51222668939046623 -0.18617036349547303 0.56977647444466173 -1.0459615142604206 1.0067823542963521 50.036366882181404 53.094745328088599 2.1168152216840799 50.108794548938242 -2.1694871607619022 39.454861176507656 0.010255635978796411 56.350478674318502 0.010059447546979627 57.38303882523202 61.575639012543611 0.0075702499791616522 0.011404175210411366 42.319821664786545 -0.057772584747064516 0.0062803302525546818 -0.0010806481193472628
decision_type=2 2 2 2 2 2 2 2 2 2 2 2 2 2 2 2 2 2 2 2 2 2 2 2 2 2 2 2 2 2
left_child=2 4 6 8 7 12 17 14 23 20 18 -8 -3 -9 29 -7 -11 -1 -6 22 28 -20 -10 24 -4 26 -12 -18 -5 -2
right_child=1 5 3 9 10 15 11 13 19 16 25 -13 -14 -15 -16 -17 27 -19 21 -21 -22 -23 -24 -25 -26 -27 -28 -29 -30 -31
leaf_value=0.041641677067777758 0.0018574300992227114 -0.02655323944906756 0.020182671107892975 0.0095140773585876675 -0.0092926578090934357 -0.03766794817952205 0.032775002423320071 -0.0075188710806716168 0.01469994545857377 0.0060994473956398317 -0.014023655475865425 0.02706251085317456 -0.032001405391179419 -0.012282581965886186 -0.0068327593688409386 -0.041622199212312423 0.0034992052714737185 0.037893527769348533 -0.016004447651124524 0.019302967460828581 0.0053264077755174437 -0.021921729132373845 0.0088422519610556524 0.013909580922942477 0.025838750088641588 -0.027194513099292533 -0.021616270809384591 -0.0013184215156190366 0.014555099208264834 -0.0030816707624307933
leaf_weight=54441.058395877481 7343.2974677681923 25768.765745565295 28665.926519647241 20742.582289367914 3755.8940303176641 26575.325826391578 20732.197122961283 26130.406944662333 31790.359155327082 28144.584259524941 3102.7350904345512 26213.183014497161 20602.649610921741 26916.327217310667 19015.884614184499 55690.156002372503 19740.784159973264 24956.463173732162 32572.702323898673 7644.2526385039091 7580.2204226255417 5948.4464422613382 5807.974540323019 3120.4815904796124 8032.5292833298445 3970.550719872117 19624.94835293293 9213.0684933960438 7674.7572049796581 27663.687529906631
leaf_count=257952 29390 111528 120784 83997 15292 122735 93146 105578 130737 113129 12878 113892 91861 109499 76420 263220 79168 115525 134553 31608 30491 24762 23645 13029 34140 16824 82894 36870 31205 110880
internal_value=3.59351e-05 -0.0218383 0.0219232 0.0116408 -0.01131 -0.0362466 0.0364223 -0.00680525 0.0175852 0.00620926 -0.0183023 0.0295859 -0.0289745 -0.0099362 -0.00373075 -0.0403453 0.00400363 0.040464 -0.0162415 0.0147263 0.00970756 -0.0169187 0.0137953 0.020833 0.0214213 -0.021565 -0.0205804 0.00196625 0.010876 -0.00204559
internal_weight=609182 304682 304500 178158 176045 128637 126343 107070 85061.5 93096 68975.3 46945.4 46371.4 53046.7 54022.9 82265.5 57098.4 79397.5 42277 45242.6 35997.6 38521.1 37598.3 39818.9 36698.5 26698.2 22727.7 28953.9 28417.3 35007
internal_count=2617632 1308314 1309318 728803 718970 589344 580515 431767 353943 374860 287203 207038 203389 215077 216690 385955 229167 373477 174607 185990 145693 159315 154382 167953 154924 112596 95772 116038 115202 140270
is_linear=0
shrinkage=0.03


Tree=23
num_leaves=31
num_cat=0
split_feature=7 7 7 7 7 7 7 7 7 7 7 7 7 4 4 7 4 4 1 7 1 4 1 4 4 3 7 1 1 4
split_gain=306868 51957.5 47582.1 6431.98 6094.3 4142.1 3199.45 1053.65 872.503 828.997 658.678 356.348 351.023 340.009 307.855 304.428 247.021 245.09 216.293 215.208 205.607 228.175 189.532 166.45 163.444 158.389 153.144 150.668 139.141 152.352
threshold=-0.016541289058373064 0.74470806011211577 -0.80453534830476781 0.30266102822470947 -0.37494454913978098 1.3726185237762465 -1.5037873267858486 -0.22222706017632821 0.49349581861439012 0.099015618537537861 -0.59274112983207528 -1.0459615142604206 0.94614981875712023 51.452385312927603 54.096995065158744 2.1168152216840799 52.382359961073313 46.660705240309447 0.0091797197243161082 -2.3991477268357384 0.011404175210411366 40.085469587692693 0.020442289243651799 58.283779295973979 58.424553379821013 -0.0012050395799958916 -0.1001010121042208 0.010906630899567626 0.016318445703018991 59.505876765082526
decision_type=2 2 2 2 2 2 2 2 2 2 2 2 2 2 2 2 2 2 2 2 2 2 2 2 2 2 2 2 2 2
left_child=2 3 6 9 10 12 19 22 17 16 28 -8 -3 25 26 -7 -2 -5 24 -1 21 -10 23 -6 -12 -11 -9 -27 29 -4
right_child=1 5 4 8 7 15 11 14 20 13 18 -13 -14 -15 -16 -17 -18 -19 -20 -21 -22 -23 -24 -25 -26 27 -28 -29 -30 -31
leaf_value=0.041328105588730811 0.00027598630817494746 -0.025605984100627508 0.021981501908925491 -0.010512986522980709 0.011122941294556108 -0.037111863759562436 0.032520925195421983 0.0076134181835543109 -0.010765991675515663 -0.0014676793135958829 0.015852451657163445 0.027115557825141523 -0.030886694687032201 -0.010082142490598748 0.0015217137080866321 -0.041056335556233635 -0.0048235816971652148 -0.015251577488316209 0.020398665283884041 0.038019649568732931 -0.024871223594139881 -0.019608219864631841 0.018125047351747279 0.0053523328240021647 0.0096694778715077454 -0.0056485347391331195 0.0039915923965870466 -0.012270652728185354 0.028144072265891898 0.014528443318802332
leaf_weight=47131.723229810596 22061.968347176909 20730.469456002116 23889.852453961968 14519.863846436143 32349.748613908887 26144.831521451473 22785.689942508936 25062.525274276733 2864.5939622074366 6989.9835166186094 31902.52381490171 21291.69629123807 25120.58961507678 25547.592668101192 19117.553563281894 54901.889547079802 13956.153611540794 30447.248194098473 8608.5385681688786 28708.418075591326 6071.5757528543472 32154.32971701026 3026.9843849539757 5228.5980874300003 4382.2782489359379 22804.548725455999 18099.07786346972 3577.5770149081945 2897.5283705294132 2761.9444174468517
leaf_count=227104 88328 90171 102137 59191 131852 122459 103792 101133 11818 28042 132502 93461 112714 103449 76615 263860 55982 125568 36009 135660 25786 135709 12377 21107 17956 91848 72588 14399 12483 11679
internal_value=1.46744e-06 -0.0209892 0.0217441 -0.0106701 0.0118735 -0.0357072 0.03634 0.00714259 -0.01661 -0.0052856 0.0184116 0.0299105 -0.0284998 -0.00747741 0.00469106 -0.0397844 -0.00170005 -0.0137218 0.0161213 0.0400762 -0.0197703 -0.0188852 0.0109024 0.0103202 0.015106 -0.00548316 0.0060948 -0.00654697 0.0218906 0.0212097
internal_weight=605138 307893 297245 180995 177327 126898 119918 102884 86057.6 94937.8 74442.7 44077.4 45851.1 58919.7 62279.2 81046.7 36018.1 44967.1 44893.3 75840.1 41090.5 35018.9 40605.3 37578.3 36284.8 33372.1 43161.6 26382.1 29549.3 26651.8
internal_count=2617779 1329324 1288455 740120 728438 589204 560017 415672 358072 382048 312766 197253 202885 237738 250336 386319 144310 184759 186467 362764 173313 147527 165336 152959 150458 134289 173721 106247 126299 113816
is_linear=0
shrinkage=0.03


Tree=24
num_leaves=31
num_cat=0
split_feature=4 4 4 3 5 2 3 2 3 4 1 5 2 1 4 5 6 3 1 3 3 6 5 1 3 6 2 2 6 5
split_gain=431.112 157.925 88.6466 46.1097 44.3746 40.5494 31.7082 32.7886 52.1048 27.4947 26.2557 26.2467 20.376 20.2576 20.2375 19.7686 20.058 19.1739 16.5929 18.2677 16.5544 16.1346 15.2145 15.0498 15.1933 14.3148 14.3575 14.1379 13.6697 16.572
threshold=51.602223278089745 37.951835110077262 58.424553379821013 -0.0010522415573118941 -0.10452846326765322 1.0533862184241007 0.0011549085735634175 0.78901450457014 -3.5727121660821959e-05 46.578384115231778 0.00745939611597488 0.47907376458949819 1.1332593219112488 0.044422667445766992 41.615217561040701 -0.46754304155550119 0.28610580641900601 0.0021606999573400769 0.0025339350342272892 -0.00073841851307643845 -0.00097973452959600237 -0.98285265264473198 -0.84455963375842924 0.036803655449315582 -0.0015247144057117716 0.63101285980617683 0.78039137474731934 0.90695653703441625 -0.28819626813408922 0.222824244682683
decision_type=2 2 2 2 2 2 2 2 2 2 2 2 2 2 2 2 2 2 2 2 2 2 2 2 2 2 2 2 2 2
left_child=1 3 4 12 -2 11 7 8 20 10 14 17 -1 27 18 16 -11 25 19 -9 -3 -7 -12 24 -6 -4 -27 -5 29 -22
right_child=2 6 5 13 23 21 -8 9 -10 15 22 -13 -14 -15 -16 -17 -18 -19 -20 -21 28 -23 -24 -25 -26 26 -28 -29 -30 -31
leaf_value=0.0038135620420331612 -3.5115013909174788e-05 0.00085499835609752564 -0.0018579405099068914 -7.1002712396938365e-05 0.0029608727431914882 -0.0033809882143858651 -0.0011362438956931376 0.0020315915632309069 0.0015133872194673908 0.00033265888926406673 0.0016351103584189783 -0.0030221019227462086 0.0019966800005853328 -0.0035875739764043421 0.00089123787513634156 3.438684391942873e-05 0.0016324409132549645 -0.0030701839136711589 0.0013625911887738518 0.0051279840925982098 -0.0018526920691931219 -0.00055879343527382699 -8.9592377937188075e-05 0.0021816822205148727 -0.0010911609547644683 0.0026731474702055111 -0.00087915958299849693 0.0021173783584022428 -0.0013677407251572959 -0.0058787612233887985
leaf_weight=17493.022762387991 81597.911631509662 2129.7084295600653 19915.365160390735 4164.6952541619539 839.96962673962116 1963.5558583885431 10802.253314495087 5587.4592286795378 7169.9057725816965 29640.89752432704 5470.9284778684378 20659.19215258956 8146.1195961833 807.57673373818398 77812.352149829268 87125.096106737852 16708.389789119363 7407.8856896907091 19348.388206630945 2474.8593625575304 2236.8212543427944 25346.74062128365 28998.496476486325 1313.7257088422775 86610.029135778546 1136.6717872023582 10249.935147464275 7337.7035073786974 9088.8133620619774 1563.883147880435
leaf_count=75972 355635 9257 86708 18081 3662 8557 47089 24266 31250 129214 23854 89869 35414 3516 338727 379729 72855 32227 84075 10754 9730 110481 126461 5745 377439 4951 44595 31904 39578 6805
internal_value=-7.96045e-06 0.000686391 -0.000937505 0.00251182 -0.000540104 -0.00171855 0.000460116 0.000518505 -0.000590531 0.000608593 0.000902792 -0.00215864 0.0032364 0.00100254 0.00113819 0.000300683 0.000801241 -0.00169774 0.00183918 0.0029826 -0.00159494 -0.00076182 0.000184189 -0.00100432 -0.00105221 -0.00137286 -0.000524346 0.00132509 -0.00199977 -0.00351042
internal_weight=601148 344107 257041 37949.1 170362 86679.3 306158 295356 22189.1 273167 139692 59369 25639.1 12310 105223 133474 46349.3 38709.9 27410.7 8062.32 15019.2 27310.3 34469.4 88763.7 87450 31302 11386.6 11502.4 12889.5 3800.7
internal_count=2618400 1498531 1119869 164887 742481 377388 1333644 1286555 96620 1189935 608137 258350 111386 53501 457822 581798 202069 168481 119095 35020 65370 119038 150315 386846 381101 136254 49546 49985 56113 16535
is_linear=0
shrinkage=0.03


Tree=25
num_leaves=31
num_cat=0
split_feature=7 7 7 7 7 7 7 7 7 7 7 7 7 4 4 4 7 4 1 4 7 1 1 4 1 4 1 1 1 4
split_gain=291188 49978 45953.2 6109.41 5908.25 4248.29 3198.8 1058.77 946.149 584.81 551.318 415.712 348.883 289.275 283.904 269.238 257.21 252.213 240.484 263.654 219.314 196.129 185.862 174.778 167.001 159.531 147.957 143.82 142.42 142.217
threshold=-0.016541289058373064 0.74470806011211577 -0.80453534830476781 0.27350064633688859 -0.37494454913978098 1.4232807302547601 -1.5037873267858486 0.45830290795906442 -0.22222706017632821 -0.57813985534073975 0.099015618537537861 1.0395380383307387 -1.0801755019621122 53.844582220166636 41.615217561040701 42.319821664786545 2.3300950497084769 53.013308770428459 0.011404175210411366 45.053300131391048 -2.3991477268357384 0.0096893776648246735 0.0098726130506440971 58.283779295973979 0.0075702499791616522 58.424553379821013 0.015312199795753075 0.013593981456160486 0.0076800108735807148 39.454861176507656
decision_type=2 2 2 2 2 2 2 2 2 2 2 2 2 2 2 2 2 2 2 2 2 2 2 2 2 2 2 2 2 2
left_child=2 3 6 10 9 11 20 15 23 26 17 27 -8 -10 -12 -5 -7 -2 19 -9 -1 25 -17 24 -6 -11 -4 29 -16 -3
right_child=1 5 4 7 8 16 12 18 13 21 14 -13 -14 -15 28 22 -18 -19 -20 -21 -22 -23 -24 -25 -26 -27 -28 -29 -30 -31
leaf_value=0.040790801760015781 3.6578266380551631e-05 -0.016644706291675398 0.020407706747855213 -0.0070394718489990267 0.01023779498428738 -0.037191995873569583 0.03216100868774148 -0.01358860687573786 0.0060097587298663996 0.015534083480447545 -0.00099934770465408946 -0.031314014563148918 0.026777458781504997 0.0016189350935459171 -0.0066814914818517481 -0.012524341772290639 -0.040755822888794299 -0.005203562495449802 -0.023876137932149124 -0.019257029786896761 0.037424097007439705 0.020099808518071555 -0.018316112014280669 0.0058189486729398757 0.015326099802437064 0.0093193477995605883 0.027048699654095162 -0.031448238653517729 -0.010850650475883602 -0.02546545898271332
leaf_weight=46361.519170373678 23143.253437831998 1782.8073599636555 28471.244637310505 7056.2440402656794 27091.903819769621 29740.234627351165 20363.24063873291 9667.1918199360371 42508.769789889455 30469.498988881707 6843.5791951268911 19944.513009950519 23284.276323825121 19792.229010269046 34753.078489810228 32323.587443888187 47898.05029168725 12858.985703364015 7190.0434818416834 31451.485248968005 28243.5454954952 7598.6427913755178 5902.7911666333675 6100.191010043025 7395.2611263096333 4240.3059874773026 3389.1520812511444 3370.178660005331 9364.6342529207468 22536.969096124172
leaf_count=227308 92665 7707 122095 28575 110485 142101 93982 40334 171197 126835 27427 91305 103309 79324 140308 132832 234292 51598 30611 133124 135500 31906 24397 24647 30376 17382 14695 14843 37852 99382
internal_value=1.34354e-05 -0.0205039 0.0212615 -0.0104021 0.01159 -0.0350634 0.0357422 -0.0157215 0.00693704 0.0180445 -0.00467712 -0.028009 0.0292898 0.0046149 -0.00668479 -0.0124252 -0.0393912 -0.00183514 -0.018811 -0.0179247 0.0395168 0.0157319 -0.0134191 0.0105013 0.0113293 0.0147752 0.021115 -0.0256274 -0.00756668 -0.0248195
internal_weight=601137 305828 295310 180555 177057 125273 118253 93591.3 102888 74168.8 86963.5 47634.5 43647.5 62301 50961.3 45282.6 77638.3 36002.2 48308.7 41118.7 74605.1 42308.4 38226.4 40587.4 34487.2 34709.8 31860.4 27690 44117.7 24319.8
internal_count=2618394 1329353 1289041 739723 728942 589630 560099 389873 416029 312913 349850 213237 197291 250521 205587 185804 376393 144263 204069 173458 362808 176123 157229 165508 140861 144217 136790 121932 178160 107089
is_linear=0
shrinkage=0.03


Tree=26
num_leaves=31
num_cat=0
split_feature=7 7 7 7 7 7 7 7 7 7 7 7 4 4 7 7 4 7 4 4 4 4 4 4 7 4 7 7 0 7
split_gain=275785 48680.1 44409.4 5673.67 5626.72 4123.24 3232.16 923.473 816.228 645.025 614.046 454.257 303.085 298.709 290.909 275.047 230.083 216.384 204.847 191.266 184.267 179.243 152.145 148.883 143.742 128.83 109.507 95.5303 84.9085 81.423
threshold=-0.016541289058373064 0.74470806011211577 -0.80453534830476781 0.34081246510559388 -0.33502477427934657 1.4780124122009146 -1.4450975144744374 0.15824529342345342 -0.51222668939046623 -0.18617036349547303 0.51809426829189575 1.0762724357477709 47.496746039158005 51.452385312927603 -1.0459615142604206 -2.1694871607619022 56.026947837431763 2.4048422863487819 46.744047466411693 60.648214128255404 45.053300131391048 50.765215533528554 39.240268675840817 56.13593944435619 -0.63914065391416341 38.770590166386363 0.048700361933753593 -0.057772584747064516 -17.35630493048976 0.59730964900720562
decision_type=2 2 2 2 2 2 2 2 2 2 2 2 2 2 2 2 2 2 2 2 2 2 2 2 2 2 2 2 2 2
left_child=2 3 6 7 8 11 15 12 19 21 18 25 -2 22 -8 -1 27 -7 -5 24 -12 -6 -9 -10 -4 -3 -14 -11 -18 -22
right_child=1 5 4 10 9 17 14 13 23 16 20 -13 26 -15 -16 -17 28 -19 -20 -21 29 -23 -24 -25 -26 -27 -28 -29 -30 -31
leaf_value=0.040052890234594185 0.00015122241473812544 -0.018638764356648466 0.022208127588063439 -0.010696594235505886 0.010885090876243465 -0.036974449894494804 0.030935480367045957 -0.0012106211370581444 0.014783662922162193 0.0058823834824696846 -0.015495518105702075 -0.03138022854567428 -0.0023631366981261763 -0.011110134223786934 0.02587188057913337 0.036148018317948977 0.012995365135217729 -0.040304587716304324 -0.015286683806699706 0.01360232641100184 -0.018419404177934567 0.0069059369227747859 -0.0073680676930465601 0.010359391031796828 0.01859387340887814 -0.026046104283081645 -0.0058456818514062477 0.0025057608781771348 -0.00027538543359225461 -0.021808152697659726
leaf_weight=51692.843504235148 19530.154862940311 2301.677851781249 19621.52860699594 13027.617745786905 21602.306939721107 29109.929146498442 20090.001184865832 4236.5614163726568 31130.809536933899 30243.12838165462 9046.5045357048512 19373.774582967162 13092.609132573009 21927.816030263901 20894.338384240866 23876.556215852499 450.51787415146828 45140.865132272243 26730.904932886362 4148.5052839666605 10692.643678575754 19299.258175998926 24498.779616340995 8790.0358038544655 20123.855066731572 27539.280480712652 21431.003711402416 10048.423675239086 11128.083845838904 16049.289521679282
leaf_count=257919 78192 10047 85308 53471 88193 141598 93392 17017 129452 121758 38100 90191 52475 89439 93255 115504 1806 224756 111319 17570 45460 78114 99183 36111 85472 122727 86181 40292 44558 69067
internal_value=1.01391e-05 -0.0200235 0.0207675 -0.0100838 0.0112809 -0.0345357 0.0351401 -0.00556305 0.0169149 0.00619074 -0.0163498 -0.0278005 -0.00283552 -0.00847302 0.0283547 0.0388196 0.00396929 -0.0389995 -0.013783 0.0197386 -0.019201 0.00900776 -0.00646033 0.0138098 0.0203787 -0.0254754 -0.00452508 0.00504036 0.000242051 -0.0204539
internal_weight=596870 303729 293140 180264 176586 123466 116554 104717 83814.7 92771.7 75547 49214.7 54053.8 50663.2 40984.3 75569.4 51870.2 74250.8 39758.5 43893.9 35788.4 40901.6 28735.3 39920.8 39745.4 29841 34523.6 40291.6 11578.6 26741.9
